tree
version=v4
num_class=1
num_tree_per_iteration=1
label_index=0
max_feature_idx=24
objective=regression
feature_names=passenger_count pickup_longitude pickup_latitude dropoff_longitude dropoff_latitude store_and_fwd_flag pickup_month pickup_day pickup_weekday pickup_hour pickup_minute latitude_difference longitude_difference trip_distance Temp. Windchill Humidity Pressure Dew_Point Visibility Wind_Dir Wind_Speed Gust_Speed Precip Conditions
feature_infos=[0:6] [-76.963241577148438:-72.809669494628892] [38.946033477783203:51.881084442138672] [-79.553535461425781:-73.047378540039062] [38.946033477783203:43.673999786376953] [0:1] [1:6] [1:31] [0:6] [0:23] [0:59] [-11.130485534667969:2.9153671264648509] [-5.5811691284179688:0.7425079345703125] [0:850.40344048374948] [-18.300000000000001:32.200000000000003] [-28.399999999999999:7.0999999999999996] [0.089999999999999997:1] [989.5:1036.8] [-28.300000000000001:20.600000000000001] [0.40000000000000002:16.100000000000001] -1:4:1:5:3:0:2:7:8:6:10 [0:137] [0:72.200000000000003] [0:11.9] -1:2:0:1:3
tree_sizes=2923 3092 3096 3090 3094 3093 3114 3121 3113 3120 3110 3126 3126 3123 3149 3147 3156 3158 3164 3130 3168 3114 3149 3148 3143 3165 3152 3160 3181 3138 3143 3157 3164 3188 3162 3159 3170 3173 3173 3154 3196 3188 3139 3177 3207 3134 3187 3145 3154 3159 3197 3138 3165 3152 3145 3180 3135 3116 3138 3135 3139 3157 3148 3147 3186 3163 3142 3158 3137 3183 3127 3188 3176 3121 3139 3200 3137 3115 3177 3132 3161 3128 3127 3123 3195 3142 3120 3160 3204 3147 3136 3146 3134 3114 3196 3108 3149 3192 3126 3208 3178 3147 3199 3136 3197 3150 3163 3154 3192 3145 3140 3170 3177 3128 3109 3200 3148 3180 3131 3133 3212 3167 3139 3113 3203 3113 3160 3157 3181 3073 3175 3182 3183 3122 3152 3155 3146 3101 3125 3150 3143 3159 3165 3177 3144 3165 3128 3145 2924 3146 3139 3175 3133 3136 3156 3152 3155 2962 3185 3150 3164 3031 3148 3130 3144 3167 3188 3078 3223 3065 3174 2943 3240 3158 3159 3164 3199 3107 2908 3073 3218 3014 3156 3145 3151 3027 3192 3006 3058 3212 3126 3059 3088 3062 3137 3148 3102 3097 3072 3156 3172 3027 3124 3131 3159 3210 3019 3182 3026 2918 3150 3114 3157 3073 3165 3079 3235 3109 2980 3111 2905 3157 3129 3169 2947 3150 3078 3119 3245 3102 3041 3050 3155 3070 3016 3136 3256 3053 3094 3066 3187 3086 2983 3116 3142 3052 2992 2926 3074 3124 3122 3066 3209 3138 3030 3149 3252 2937 3127 3033 3129 3123 3093 2876 3124 3011 3096 3113 3246 2989 3081 3081 3106 2969 2966 3040 3024 3097 3233 3023 3122 3054 3124 3031 3005 3051 3257 2943 3082 2976 3111 3008 2936 3119 3060 2934 3101 2995 3048 3013 3215 3125 3015 3120 2883 3012 2922 3069 3100 3105 3078 3105 2855 2943 3009 3042 2973 3108 3027 2964 2892 3041 3083 2947 3064 3042 3221 2968 3108 2927 3071 2864 2981 2959 3082 3132 3143 3110 3076 3159 2937 3027 3142 2956 3033 3172 3085 3013 2927 3151 3042 3019 3073 2984 2887 3077 3193 3009 2951 2873 2907 2894 3011 3210 2984 3092 3133 2972 3033 3033 2974 3103 3025 2967 2991 2884 2952 3074 2947 3063 3089 2962 2947 3009 3014 2906 2898 2982 3019 3071 2879 3120 2877 2902 2954 3117 3053 2867 2899 2895 3140 2910 2877 3056 2956 2997 3203 3062 2958 2961 2837 2877 2916 3171 2881 2923 3006 2900 3134 2874 3053 2872 3057 2952 3051 2973 3132 3100 2941 2886 2962 3100 2989 2938 3019 2993 3110 3151 3060 2954 2903 3175 3073 2945 3145 3094 2995 3092 2890 2927 3116 3085 3086 3055 3024 3179 3097 3121 2874 2996 2892 2888 2882 3006 2915 2913 3016 3087 3084 3085 3093 3021 3081 3057 2918 3078 2941 3069 2991 2848 2912 3093 2925 2877 2871 2948 3092 3147 2942 2907 3096 2900 3101 2915 2952 2896 3190 3120 2948 2894 2980 3104 2938 2947 2915 3072 2969 2883 2922 3087 2984 3016 3056 2940 3008 3048 3077 3079 2993 3144 2870 3024 2961 3130 2948 2926 3062 2985 3013 3005 2956 2971 3073 2893 2909 2904 2978 2890 3058 3060 3177 3027 2948 2905 3094 2928 2884 2965 3158 3094 3109 2959 3172 3067 3116 2938 3086 3014 3184 3011 2891 2931 3108 3051 2940 2976 3087 2959 3050 2957 2865 2987 3097 3029 2973 3054 2891 2890 3063 3018 3003 3001 2978 2996 2881 2955 3172 3044 2982 2955 2905 2922 3064 3014 2940 3020 2938 3034 2999 3082 3010 3007 2998 2951 3032 2977 3021 3058 3032 2921 2993 3012 3026 3014 2988 2904 3081 2878 2905 3129 2882 3115 2921 3004 3091 3008 3024 3017 2993 3001 2923 3095 3040 3015 2942 3039 3022 2925 3096 2988 2902 3093 2899 2991 2959 3099 2954 2903 2964 3030 2931 3025 3060 2976 3037 3081 2906 3034 2973 3091 3080 2971 2952 3024 2930 2913 3094 2880 2980 2959 3096 2963 3098 2956 2981 2995 3111 3135 2872 2983 3091 3023 2931 2939 3014 2944 2940 2973 2966 3083 2950 3046 3006 2937 3077 3048 2906 2949 3205 2855 3013 3014 2940 3012 2887 2967 2961 2969 2922 3038 2901 3005 2952 3026 3164 3054 2977 2930 3001 3020 2979 2992 3089 3048 2924 2941 3004 3044 2998 3026 3024 2918 3021 3044 2931 2965 2877 3010 2909 3005 2952 2991 2879 3006 2919 2925 3024 2976 3004 2962 2980 2933 2885 3153 3138 2902 2883 3144 3004 3154 2930 2983 2920 3032 2946 2966 3039 2892 2855 2916 2997 2942 2944 2890 3053 3027 3018 3055 2859 2958 2897 2927 3005 2907 2940 2962 3011 2966 2908 3040 2916 3076 3169 2951 3070 3050 2990 3093 2943 2963 2850 2932 2979 2979 2943 2996 3000 3137 2942 2928 2942 2980 3035 3037 2986 3126 3084 2921 3075 3028 3039 2936 3005 2948 2964 3101 3069 3022 2915 2912 2968 3007 2995 2899 2919 2949 2850 2895 3037 2936 2977 3046 3020 2967 2942 2983 2932 2915 2913 2920 3015 2888 3008 2966 2961 2913 2923 2955 2939 3049 2902 2974 2970 3007 2925 3133 2896 2952 2939 2938 2959 2871 2932 2893 2895 2958 3020 2930 3000 2884 3070 2975 2959 3120 2978 3189 3087 2969 2952 2952 2971 2935 3062 2989 2975 2982 2983 2979 2949 3062 2922 3024 2971 2937 2972 2948 3055 3069 2971 2958 3031 2964 3028 2926 2901 2966 3030 2913 2934 3121 3008 2988 3002 2972 3064 3018 2938 2958 2891 2963 3043 2929 3093 3067 2952 2955 3050 3059 3010 3005 3015 3029 3145 3019 2943 2938 3085 2920 3000 2927 2922 2931 2978 2910 2999 2963 3035 2921 2887 2829 3022 2893 3080 2926 2981 2973 2876 2916 2929 2908 3068 3006 3084 2929 2953 3058 2904 2926 3010 2943 3021 2860 2926 2964 2903 3065 3026 2938 2893 3104 3108 3074 3071 2955 2903 2903 3096 3022 2914 2968

Tree=0
num_leaves=31
num_cat=0
split_feature=13 13 13 13 13 13 13 9 4 9 9 9 4 4 13 9 9 8 13 9 9 9 8 8 8 9 9 13 13 4
split_gain=142537 26678.6 26355.3 4854.47 4143.1 4141.34 3863.22 1338.58 1295.51 1287.18 1222.96 1221.08 1115.39 1063.48 981.098 855.277 702.049 630.7 628.708 627.072 561.633 523.898 520.382 512.953 494.565 418.853 411.021 388.327 387.69 365.338
threshold=2.1035524343857199 5.316734708238509 1.0176438979037667 13.009685050134136 0.62518811857735113 3.1641582476894401 1.4891706871685415 7.5000000000000009 40.769872665405281 7.5000000000000009 7.5000000000000009 7.5000000000000009 40.768796920776374 40.771657943725593 7.6419495404857907 7.5000000000000009 19.500000000000004 4.5000000000000009 0.32392757071338396 18.500000000000004 19.500000000000004 19.500000000000004 4.5000000000000009 4.5000000000000009 4.5000000000000009 6.5000000000000009 7.5000000000000009 0.84078840567576496 19.533702295112061 40.767965316772468
decision_type=2 2 2 2 2 2 2 2 2 2 2 2 2 2 2 2 2 2 2 2 2 2 2 2 2 2 2 2 2 2
left_child=2 5 4 14 18 9 8 -7 10 -2 -4 -8 15 20 26 -6 17 -11 -1 23 22 24 -13 -9 -12 -16 -3 -17 -5 -20
right_child=1 3 6 28 12 7 11 19 -10 16 21 13 -14 -15 25 27 -18 -19 29 -21 -22 -23 -24 -25 -26 -27 -28 -29 -30 -31
leaf_value=2.4325240375742876 2.4847483141932951 2.5125064758924673 2.4616926164016864 2.5431274649307603 2.4491190556363724 2.4980503091221227 2.472519561286683 2.519013409259252 2.4617459340357146 2.5033643748739469 2.4813164923908304 2.4939403132672378 2.4486900273372667 2.4768985078747754 2.5214478572165131 2.4593265963236042 2.4914316861118926 2.4933041475533497 2.4474067150005778 2.5066801319467009 2.4818203915263002 2.469744003825733 2.4836735180885765 2.5079515254178744 2.4713719233318567 2.533929356275133 2.5232979078673368 2.4668608573295878 2.5551398782267509 2.4371650433069743
leaf_weight=15128 22607 12180 16464 12153 13194 22107 19925 33380 26233 53894 48780 44851 24922 24853 8613 34865 30110 21914 29754 33870 22042 21311 17028 15276 16811 30607 32020 33569 15016 12310
leaf_count=15128 22607 12180 16464 12153 13194 22107 19925 33380 26233 53894 48780 44851 24922 24853 8613 34865 30110 21914 29754 33870 22042 21311 17028 15276 16811 30607 32020 33569 15016 12310
internal_value=2.48728 2.51118 2.46781 2.53141 2.45212 2.50159 2.47776 2.50898 2.47167 2.49558 2.47419 2.4839 2.45795 2.48598 2.52543 2.46078 2.49789 2.50046 2.44127 2.5119 2.48867 2.47655 2.49112 2.51554 2.47877 2.53119 2.52032 2.46302 2.54977 2.44441
internal_weight=765787 343747 422040 110589 163742 233158 258298 104633 129599 128525 103366 128699 106550 108774 83420 81628 105918 75808 57192 82526 83921 86902 61879 48656 65591 39220 44200 68434 27169 42064
internal_count=765787 343747 422040 110589 163742 233158 258298 104633 129599 128525 103366 128699 106550 108774 83420 81628 105918 75808 57192 82526 83921 86902 61879 48656 65591 39220 44200 68434 27169 42064
is_linear=0
shrinkage=1


Tree=1
num_leaves=31
num_cat=0
split_feature=13 13 13 13 13 13 13 9 9 4 13 9 4 9 4 4 9 9 9 9 8 13 8 9 8 9 8 13 9 11
split_gain=128674 26748 21438.9 5288.47 3618.78 3426.6 2922.11 1273.04 1150.75 1147.53 1135.48 1101.04 1088.97 1024.48 851.231 744.862 657.398 604.497 557.379 526.365 524.195 509.288 445.561 444.136 457.882 441.369 422.724 416.432 395.055 372.39
threshold=1.9867909097124026 4.7720672347817157 0.94542570882793819 11.909543731862096 1.3718820224250428 2.924573087578429 0.5816990631101614 7.5000000000000009 7.5000000000000009 40.769540786743171 7.1485464384712261 7.5000000000000009 40.772020339965827 7.5000000000000009 40.768270492553718 40.770925521850593 7.5000000000000009 19.500000000000004 19.500000000000004 7.5000000000000009 4.5000000000000009 17.513042636142586 4.5000000000000009 18.500000000000004 4.5000000000000009 19.500000000000004 4.5000000000000009 0.32392757071338396 6.5000000000000009 0.027120590209953836
decision_type=2 2 2 2 2 2 2 2 2 2 2 2 2 2 2 2 2 2 2 2 2 2 2 2 2 2 2 2 2 2
left_child=2 5 6 10 9 11 27 -7 -6 13 19 -2 18 -4 16 25 -8 22 20 -3 -10 -5 -9 24 -15 26 -13 -1 -12 -17
right_child=1 3 4 21 8 7 14 17 12 -11 28 15 -14 23 -16 29 -18 -19 -20 -21 -22 -23 -24 -25 -26 -27 -28 -29 -30 -31
leaf_value=-0.052020609402738019 -0.0042264830421253298 0.021383811443161264 -0.026702871931288091 0.05024248245781826 -0.016173350470453641 0.0073322823025641836 -0.038142712959502417 0.026638988281112632 0.0040283891560722578 -0.026817714638108999 0.031480698765876163 0.015757894325027458 -0.012741390518891475 -0.0073601803500844823 -0.038278641659497903 -0.0010279522394843245 -0.02515349137781614 0.014750303074873978 -0.0075437291976934717 0.032421765498158506 -0.0058521664043322853 0.063438524519650749 0.017113010839357189 -0.017952717577669159 -0.017893927633555011 0.0046444997422270141 0.0061919344733422322 -0.041998357074731041 0.043061306307331272 0.016177898558475838
leaf_weight=15128 21893 14564 15185 12298 21074 21917 11652 40315 49496 24989 9527 39657 24942 41124 23403 24820 59393 27620 23796 41798 18419 18033 17649 25836 13771 22234 16294 32917 32442 3601
leaf_count=15128 21893 14564 15185 12298 21074 21917 11652 40315 49496 24989 9527 39657 24942 41124 23403 24820 59393 27620 23796 41798 18419 18033 17649 25836 13771 22234 16294 32917 32442 3601
internal_value=-8.04338e-11 0.0214959 -0.0195419 0.039836 -0.0109619 0.0114973 -0.035115 0.0180843 -0.00542047 -0.0172743 0.034206 0.00598666 -0.00347791 -0.014788 -0.0300082 0.00808407 -0.0272838 0.0208378 -0.000958582 0.0295695 0.00134872 0.0580881 0.0237385 -0.0125469 -0.0100027 0.0106039 0.0129721 -0.0451541 0.0404325 0.00115206
internal_weight=765787 364662 401125 128662 258632 236000 142493 107501 137727 120905 98331 128499 116653 95916 94448 106606 71045 85584 91711 56362 67915 30331 57964 80731 54895 78185 55951 48045 41969 28421
internal_count=765787 364662 401125 128662 258632 236000 142493 107501 137727 120905 98331 128499 116653 95916 94448 106606 71045 85584 91711 56362 67915 30331 57964 80731 54895 78185 55951 48045 41969 28421
is_linear=0
shrinkage=0.05


Tree=2
num_leaves=31
num_cat=0
split_feature=13 13 13 13 13 13 13 9 4 9 9 4 9 4 9 13 4 12 11 9 9 8 9 9 8 8 9 11 9 8
split_gain=116249 22924 20524.6 4000.37 3714.41 3405.57 3054.78 1218.94 1051.74 994.315 975.338 939.175 922.552 811.478 753.948 732.077 707.805 675.296 452.007 450.036 446.824 478.582 433.72 431.196 455.184 401.676 400.784 375.095 365.354 355.21
threshold=2.1755070534308758 1.0690400543635408 5.730935015298888 0.67948354540274969 3.5292027435703974 14.087818270639826 1.5642881466087675 7.5000000000000009 40.769540786743171 7.5000000000000009 7.5000000000000009 40.768503189086921 7.5000000000000009 40.771657943725593 7.5000000000000009 0.4525497468796274 40.770261764526374 -0.099994659423821006 -0.030021667480465194 19.500000000000004 18.500000000000004 4.5000000000000009 18.500000000000004 18.500000000000004 4.5000000000000009 4.5000000000000009 7.5000000000000009 0.030820846557617191 19.500000000000004 4.5000000000000009
decision_type=2 2 2 2 2 2 2 2 2 2 2 2 2 2 2 2 2 2 2 2 2 2 2 2 2 2 2 2 2 2
left_child=1 3 4 15 7 17 8 -2 9 -3 -8 14 -6 19 -5 -1 18 -4 -9 25 21 -11 29 24 -20 -12 -19 -18 -16 -14
right_child=2 6 5 11 12 -7 10 16 -10 20 13 -13 22 -15 28 -17 27 26 23 -21 -22 -23 -24 -25 -26 -27 -28 -29 -30 -31
leaf_value=-0.046533439513433465 -0.00065380267308851134 -0.021458910421815105 0.046887016411413907 -0.033078779208790307 0.012627884210126112 0.057657249640383934 -0.012123881686499699 0.023724356169192534 -0.021333602492109305 -0.0030920382293576363 0.0074639127677086818 -0.033207446454256287 0.031368836348521986 -0.0078230513851358791 -0.018183958097034204 -0.036023106780909329 0.0028313012119182499 0.027905313447815411 0.018388123594585925 -0.0036360896713491572 -0.013355451936578203 -0.013340704150441902 0.020202834415539453 0.0073923215844683594 0.007735512253985867 -0.001811190567288347 0.036616015923316592 0.019093319469942093 -0.026737720570935371 0.021319815047162308
leaf_weight=27147 25872 16981 12110 13447 19827 24195 19034 9933 27714 43781 42175 25394 27784 24204 54114 42514 27448 18904 33886 21023 28763 15397 29232 27556 14243 16140 43804 4072 16227 12866
leaf_count=27147 25872 16981 12110 13447 19827 24195 19034 9933 27714 43781 42175 25394 27784 24204 54114 42514 27448 18904 33886 21023 28763 15397 29232 27556 14243 16140 43804 4072 16227 12866
internal_value=1.1262e-10 -0.0170307 0.0222838 -0.0307571 0.0141715 0.0413508 -0.0074117 0.00916845 -0.0126704 -0.0103822 -0.00172137 -0.0247839 0.0221471 0.000190911 -0.022231 -0.040119 0.0113379 0.0360776 0.0136961 0.00263577 -0.00824328 -0.00575855 0.0248479 0.01238 0.0152357 0.00489682 0.0339901 0.00493216 -0.0201572 0.0281883
internal_weight=765787 434055 331732 178843 232719 99013 255212 143010 132636 104922 122576 109182 89709 103542 83788 69661 117138 74818 85618 79338 87941 59178 69882 75685 48129 58315 62708 31520 70341 40650
internal_count=765787 434055 331732 178843 232719 99013 255212 143010 132636 104922 122576 109182 89709 103542 83788 69661 117138 74818 85618 79338 87941 59178 69882 75685 48129 58315 62708 31520 70341 40650
is_linear=0
shrinkage=0.05


Tree=3
num_leaves=31
num_cat=0
split_feature=13 13 13 13 13 13 13 9 13 9 4 4 9 9 4 4 9 9 9 9 8 13 8 9 3 9 11 8 8 9
split_gain=105011 22516.8 17023.3 4564.2 3020.16 2683.11 2199.19 1069.88 1050.08 965.98 951.94 908.759 839.387 782.023 709.949 572.702 547.383 544.987 498.55 452.852 489.265 426.462 416.964 391.018 387.145 370.628 362.706 347.762 323.701 313.049
threshold=1.9546353656699209 4.6014056383326905 0.92486724624108307 11.909543731862096 1.3260208366624096 2.7775010090935379 0.5508613692347879 7.5000000000000009 7.3839144780549049 7.5000000000000009 40.769872665405281 40.769872665405281 7.5000000000000009 7.5000000000000009 40.767625808715827 40.774450302124031 7.5000000000000009 19.500000000000004 7.5000000000000009 18.500000000000004 4.5000000000000009 17.513042636142586 4.5000000000000009 19.500000000000004 -73.80452728271483 19.500000000000004 0.017778396606441763 4.5000000000000009 4.5000000000000009 6.5000000000000009
decision_type=2 2 2 2 2 2 2 2 2 2 2 2 2 2 2 2 2 2 2 2 2 2 2 2 2 2 2 2 2 2
left_child=2 5 6 8 11 12 24 -7 18 -6 19 13 -2 -4 16 23 -8 22 -3 20 -11 -5 -9 27 -1 28 -12 -14 -15 -10
right_child=1 3 4 21 9 7 14 17 29 10 26 -13 15 25 -16 -17 -18 -19 -20 -21 -22 -23 -24 -25 -26 -27 -28 -29 -30 -31
leaf_value=-0.041072136794842493 -0.0047830521803674366 0.019168172258493155 -0.024902235153032456 0.045308311638373996 -0.015213410060019032 0.0056032247420209087 -0.035330575380175276 0.022894976790490826 0.028636210254999211 0.0038423169968427439 -0.014040401144812018 -0.025270022653292579 0.01318155390439453 -0.0081174191891422807 -0.035286983920490213 -0.00065439203243338514 -0.023430014909075706 0.012003908646570534 0.029152372212471991 -0.0062384042944495285 -0.0061729267001318193 0.057383735571464603 0.014063860596634012 0.0027406999305957355 -0.077343344226484506 -0.018385640362489609 0.0023228376967572325 0.0044623993816193946 -0.01669549995882114 0.039354726287839779
leaf_weight=41369 20087 16828 14385 12298 21988 23193 11585 44191 8789 44851 24725 23247 39664 44024 24570 22211 58232 29579 48651 31662 16748 18033 19162 21581 749 18446 3924 16069 14660 30286
leaf_count=41369 20087 16828 14385 12298 21988 23193 11585 44191 8789 44851 24725 23247 39664 44024 24570 22211 58232 29579 48651 31662 16748 18033 19162 21581 749 18446 3924 16069 14660 30286
internal_value=-3.87701e-11 0.0191186 -0.0179312 0.0354112 -0.0103922 0.00979625 -0.0322166 0.01521 0.0304573 -0.00556727 -0.00382747 -0.0164421 0.0045403 -0.0141996 -0.0279772 0.00642202 -0.0254047 0.0176076 0.0265864 -0.00137863 0.0011193 0.0524876 0.0202239 0.00845496 -0.0417172 -0.0122035 -0.0117992 0.0106676 -0.0102603 0.0369438
internal_weight=765787 370622 395165 134885 258660 235737 136505 116125 104554 143898 121910 114762 119612 91515 94387 99525 69817 92932 65479 93261 61599 30331 63353 77314 42118 77130 28649 55733 58684 39075
internal_count=765787 370622 395165 134885 258660 235737 136505 116125 104554 143898 121910 114762 119612 91515 94387 99525 69817 92932 65479 93261 61599 30331 63353 77314 42118 77130 28649 55733 58684 39075
is_linear=0
shrinkage=0.05


Tree=4
num_leaves=31
num_cat=0
split_feature=13 13 13 13 13 13 13 9 4 9 9 4 9 4 9 13 4 9 9 9 9 11 12 8 9 8 8 9 4 9
split_gain=94909.8 19883.9 15782.5 3391.43 3121.74 2761.6 2423.3 990.607 900.085 843.177 834.814 788.499 739.506 668.329 631.303 607.903 595.147 486.743 443.714 392.676 392.159 388.297 370.914 368.358 356.618 375.427 352.079 351.025 327.863 327.02
threshold=2.2498338027727027 1.0790557156228593 6.0957159411457358 0.67948354540274969 3.673639121725 1.6027693714450704 14.087818270639826 7.5000000000000009 40.771310806274421 7.5000000000000009 7.5000000000000009 40.768796920776374 7.5000000000000009 40.773145675659187 7.5000000000000009 0.42724702369992201 40.770261764526374 6.5000000000000009 18.500000000000004 19.500000000000004 19.500000000000004 -0.031675338745120733 -0.099994659423821006 4.5000000000000009 18.500000000000004 4.5000000000000009 4.5000000000000009 18.500000000000004 40.768796920776374 5.5000000000000009
decision_type=2 2 2 2 2 2 2 2 2 2 2 2 2 2 2 2 2 2 2 2 2 2 2 2 2 2 2 2 2 2
left_child=1 3 4 15 7 8 17 -2 9 -3 -7 14 -6 19 -5 -1 21 -4 22 26 23 -9 -19 -11 25 -23 -12 -14 -17 -8
right_child=2 5 6 11 12 10 29 16 -10 20 13 -13 27 -15 -16 28 -18 18 -20 -21 -22 24 -24 -25 -26 -27 -28 -29 -30 -31
leaf_value=-0.042680265008797152 0.00032020661605006889 -0.018980028460520545 0.025746825311762256 -0.029748751471045734 0.012730396269843276 -0.010252382120214537 0.036084023863867262 0.023241270303823187 -0.019276277528628656 -0.0031735669729314256 0.0075278305357886002 -0.029967075489363039 0.026623143816840694 -0.0064774479317785674 -0.018104110239065628 -0.030285792821779609 0.0051934988812240637 0.048909224175560533 0.030009296746074349 -0.002635866411152028 -0.012780376970482494 0.017700862810278876 0.036416838461645611 -0.01140963552261761 0.0076353835532125651 0.0079880586042927037 -0.00097650915419154362 0.019407622619198459 -0.039845467333860643 0.054174159587118388
leaf_weight=24279 25782 17950 15311 13858 20266 19627 2829 8869 26624 52500 43773 25535 40108 23446 72698 33076 30525 7997 19510 21993 23309 33293 23121 18311 27405 14189 16857 29074 12306 21366
leaf_count=24279 25782 17950 15311 13858 20266 19627 2829 8869 26624 52500 43773 25535 40108 23446 72698 33076 30525 7997 19510 21993 23309 33293 23121 18311 27405 14189 16857 29074 12306 21366
internal_value=-3.65e-12 -0.0148994 0.0207957 -0.0276305 0.0138332 -0.00614753 0.0385246 0.00917315 -0.0110123 -0.00904902 -0.000779736 -0.0222462 0.0211302 0.000973082 -0.0199685 -0.0362944 0.0111704 0.0335585 0.0359209 0.00308733 -0.00715504 0.0133487 0.0396273 -0.00530333 0.0121771 0.0147984 0.00516336 0.0235908 -0.032878 0.052059
internal_weight=765787 446142 319645 181752 229511 264390 90134 140063 138694 112070 125696 112091 89448 106069 86556 69661 114281 65939 50628 82623 94120 83756 31118 70811 74887 47482 60630 69182 45382 24195
internal_count=765787 446142 319645 181752 229511 264390 90134 140063 138694 112070 125696 112091 89448 106069 86556 69661 114281 65939 50628 82623 94120 83756 31118 70811 74887 47482 60630 69182 45382 24195
is_linear=0
shrinkage=0.05


Tree=5
num_leaves=31
num_cat=0
split_feature=13 13 13 13 13 13 13 9 4 9 13 9 4 9 4 9 11 9 8 9 9 9 9 8 3 9 9 11 4 8
split_gain=85740.7 16163.5 15964.9 3418.1 2673.82 2264.19 1964.74 816.051 795.964 792.439 727.503 722.682 709.14 688.237 666.173 517.615 476.071 452.686 438.892 421.705 372.29 423.364 369.876 406.291 359.306 351.742 335.044 332.109 312.594 311.523
threshold=2.1035524343857199 4.8515335997702556 0.98680620402765695 11.909543731862096 1.4404102310395472 0.5816990631101614 3.0247297001667062 7.5000000000000009 40.769872665405281 7.5000000000000009 7.6419495404857907 7.5000000000000009 40.769540786743171 7.5000000000000009 40.766912460327156 7.5000000000000009 -0.026464462280276987 18.500000000000004 4.5000000000000009 19.500000000000004 5.5000000000000009 18.500000000000004 18.500000000000004 4.5000000000000009 -73.80452728271483 6.5000000000000009 19.500000000000004 0.018856048583987931 40.747312545776374 4.5000000000000009
decision_type=2 2 2 2 2 2 2 2 2 2 2 2 2 2 2 2 2 2 2 2 2 2 2 2 2 2 2 2 2 2
left_child=2 6 5 10 8 24 13 -8 11 -6 25 -4 22 -2 15 -7 -15 18 -18 29 -5 -22 23 -11 -1 -3 -13 -14 -17 -9
right_child=1 3 4 20 9 14 7 19 -10 12 -12 26 27 16 -16 28 17 -19 -20 -21 21 -23 -24 -25 -26 -27 -28 -29 -30 -31
leaf_value=-0.036353023384864284 -0.0024952586266572649 0.017703856666513623 -0.020699237717438881 0.033082849961682072 -0.011757271352805732 -0.030616477907809754 0.0065792054382756513 0.022715514462203438 -0.02085181220520152 0.0057649535216188685 0.03376654424512919 -0.0073643632838327772 -0.01019896690250156 0.017972680973782334 -0.030434787472952952 -0.023380142077313912 0.011981823697686293 0.0015849088943697678 0.0021837191340458215 0.01247448224732646 0.053817052315412783 0.040128496412387776 -0.0035900968586966031 -0.0035298859464837976 -0.071074890784791317 0.026860336612351363 -0.014690594541277087 0.0048584050635878022 -0.016457009966599195 0.014498673849466199
leaf_weight=47288 20282 13604 16085 3934 21674 12901 20854 37605 25599 42432 36058 64348 25540 9989 28083 30346 39419 30830 16096 26244 18208 8189 30609 16263 757 45796 20602 4275 35238 16639
leaf_count=47288 20282 13604 16085 3934 21674 12901 20854 37605 25599 42432 36058 64348 25540 9989 28083 30346 39419 30830 16096 26244 18208 8189 30609 16263 757 45796 20602 4275 35238 16639
internal_value=-3.03173e-11 0.0185382 -0.0150991 0.0328101 -0.00770486 -0.0278887 0.0103015 0.0153938 -0.0129765 -0.00296333 0.0281641 -0.0109812 -0.00136325 0.00587607 -0.023826 -0.0214613 0.00763855 0.00644303 0.00914096 0.0176777 0.047432 0.0495705 0.000865837 0.00318957 -0.0369001 0.0247633 -0.00914111 -0.00803998 -0.0196604 0.0201951
internal_weight=765787 343747 422040 125789 267427 154613 217958 101342 126634 140793 95458 101035 119119 116616 106568 78485 96334 86345 55515 80488 30331 26397 89304 58695 48045 59400 84950 29815 65584 54244
internal_count=765787 343747 422040 125789 267427 154613 217958 101342 126634 140793 95458 101035 119119 116616 106568 78485 96334 86345 55515 80488 30331 26397 89304 58695 48045 59400 84950 29815 65584 54244
is_linear=0
shrinkage=0.05


Tree=6
num_leaves=31
num_cat=0
split_feature=13 13 13 13 13 13 13 13 9 9 4 4 9 4 9 11 9 9 13 4 11 4 11 9 8 4 11 3 11 9
split_gain=77508.7 17353.5 12042.5 3715.69 2032.19 1788.55 1620.93 840.453 750.756 691.057 702.425 661.062 638.87 576.74 556.631 467.396 460.44 453.75 441.37 439.962 393.299 441.347 358.205 339.059 358.898 321.715 309.039 295.056 288.593 284.108
threshold=1.9082470398412794 4.3080521914627807 0.92486724624108307 11.099329450030298 1.3146873252384375 2.6947400186901729 0.51633369489563596 6.9197676497171967 7.5000000000000009 7.5000000000000009 40.772020339965827 40.769540786743171 6.5000000000000009 40.769170761108406 7.5000000000000009 -0.024080276489257809 7.5000000000000009 6.5000000000000009 17.513042636142586 40.775827407836921 0.025180816650394181 40.774736404418952 -0.017919540405266329 18.500000000000004 4.5000000000000009 40.745370864868171 0.018856048583987931 -73.80452728271483 -0.036870956420901983 19.500000000000004
decision_type=2 2 2 2 2 2 2 2 2 2 2 2 2 2 2 2 2 2 2 2 2 2 2 2 2 2 2 2 2 2
left_child=2 5 6 7 11 12 27 17 -7 -6 22 14 -2 16 -4 -14 -8 -3 -5 28 21 -17 -11 24 25 -24 -9 -1 -10 -30
right_child=1 3 4 18 9 8 13 26 19 10 -12 -13 15 -15 -16 20 -18 -19 -20 -21 -22 -23 23 -25 -26 -27 -28 -29 29 -31
leaf_value=-0.036122529301632192 -0.0062449051794540092 0.014190548154436662 -0.021451332365351718 0.037931802429440373 -0.013533687984642929 0.0037962103006641771 -0.031058228671449167 0.034016197243483724 0.025014591422502359 0.0081247719479057342 -0.011229633246963643 -0.021783487389724573 0.014838493977147463 -0.031174179709176214 -0.010575987226942073 0.0044944191458821331 -0.02057640904643275 0.023953547836183989 0.049481411677327794 0.0070686636759339262 0.014083856689533953 -0.0041535422730307739 -0.0043264641574163008 -0.0071686628909700583 -0.0070410950456066814 0.0050888175977404949 0.025095763804326699 -0.067896614924863471 0.016895472138059735 0.0097093338242415124
leaf_weight=35464 15320 15082 13965 15282 20996 22096 12542 26918 7611 8443 24398 23109 10232 24117 74713 67006 63636 56430 18033 17985 8149 18919 13533 28034 15046 27529 15187 746 45565 19701
leaf_count=35464 15320 15082 13965 15282 20996 22096 12542 26918 7611 8443 24398 23109 10232 24117 74713 67006 63636 56430 18033 17985 8149 18919 13533 28034 15046 27529 15187 746 45565 19701
internal_value=1.92182e-11 0.016048 -0.0157674 0.0294998 -0.00924077 0.00755005 -0.0277093 0.0251943 0.0120622 -0.00518125 -0.00368216 -0.0142514 0.00328939 -0.0244355 -0.0122886 0.00468975 -0.0223021 0.0218945 0.0441835 0.0140723 0.00358592 0.00259031 -0.00169325 -0.00267841 -0.000434881 0.00198578 0.0307987 -0.0367771 0.0158008 0.0147263
internal_weight=765787 379516 386271 146932 249766 232584 136505 113617 112958 137979 116983 111787 119626 100295 88678 104306 76178 71512 33315 90862 94074 85925 92585 84142 56108 41062 42105 36210 72877 65266
internal_count=765787 379516 386271 146932 249766 232584 136505 113617 112958 137979 116983 111787 119626 100295 88678 104306 76178 71512 33315 90862 94074 85925 92585 84142 56108 41062 42105 36210 72877 65266
is_linear=0
shrinkage=0.05


Tree=7
num_leaves=31
num_cat=0
split_feature=13 13 13 13 13 13 13 9 4 4 9 9 13 9 11 9 4 9 12 8 4 4 11 11 9 8 4 9 11 9
split_gain=69984 15226.8 11289.7 2961.22 2200.39 1824.21 1815.32 770.102 646.899 621.052 613.031 608.124 556.511 502.891 485.7 481.923 474.078 451.944 438.976 401.356 339.911 324.812 319.716 319.046 313.026 350.072 315.549 304.613 298.772 284.764
threshold=2.2893693077417594 1.1320332922794316 6.0957159411457358 0.71664692007268127 3.8261143858889954 1.6412505962833375 15.379443217980628 6.5000000000000009 40.772760391235359 40.766912460327156 6.5000000000000009 7.5000000000000009 0.39825432005422873 7.5000000000000009 -0.032602310180664056 7.5000000000000009 40.774736404418952 19.500000000000004 -0.10901260375975851 4.5000000000000009 40.766912460327156 40.747312545776374 -0.015893936157226559 -0.022031784057620737 18.500000000000004 4.5000000000000009 40.744760513305671 18.500000000000004 -0.079673767089847289 19.500000000000004
decision_type=2 2 2 2 2 2 2 2 2 2 2 2 2 2 2 2 2 2 2 2 2 2 2 2 2 2 2 2 2 2
left_child=1 3 4 12 7 8 18 -2 11 15 -7 -3 -1 -6 -9 -5 23 19 -4 -16 -14 -17 -13 -12 25 26 -24 -23 -20 -25
right_child=2 5 6 9 13 10 -8 14 -10 -11 16 22 20 -15 17 21 -18 -19 28 -21 -22 27 24 29 -26 -27 -28 -29 -30 -31
leaf_value=-0.037448902830473772 -0.00048274330333056709 -0.015565756233917675 0.038468283278667949 -0.024333453194977067 0.01148528407253995 -0.0097138333577621722 0.045956998983078388 0.020695398336526311 -0.016131478223901239 -0.024288074200544855 0.012681144654546709 0.0047491965246787829 -0.025493066951942752 0.020875481047082627 0.013176459957167248 -0.017895277149179361 -0.0054069424589772144 0.0039125448354501557 0.038192767807948093 0.0053282623791701851 -0.033912491726009464 -0.0085877719522562106 -0.0081767902199345998 0.003632832842485779 -0.010633646606145186 -0.010724651226343102 0.0011398898206035183 -0.018343477935416207 0.026275130407406755 -0.0032867283385287836
leaf_weight=21236 20859 17321 10738 14294 18496 14723 21021 9622 23460 29621 7500 7221 40591 62230 58031 34139 21920 31516 5844 22648 17012 29177 13252 59017 27138 14802 28926 11025 52531 19876
leaf_count=21236 20859 17321 10738 14294 18496 14723 21021 9622 23460 29621 7500 7221 40591 62230 58031 34139 21920 31516 5844 22648 17012 29177 13252 59017 27138 14802 28926 11025 52531 19876
internal_value=7.87933e-12 -0.0125855 0.0181536 -0.0230242 0.012127 -0.00452206 0.0330906 0.00839445 -0.00860183 -0.0180201 -0.000141068 -0.00697616 -0.0305302 0.018724 0.00991452 -0.0159254 0.00116016 0.00898993 0.0291773 0.0109733 -0.0279796 -0.0143088 -0.00534727 0.00282639 -0.00621399 -0.00410903 -0.00178734 -0.0112632 0.0274682 0.00188955
internal_weight=765787 452251 313536 197095 223402 255156 90134 142676 132120 118256 123036 108660 78839 80726 121817 88635 108313 112195 69113 80679 57603 74341 91339 86393 84118 56980 42178 40202 58375 78893
internal_count=765787 452251 313536 197095 223402 255156 90134 142676 132120 118256 123036 108660 78839 80726 121817 88635 108313 112195 69113 80679 57603 74341 91339 86393 84118 56980 42178 40202 58375 78893
is_linear=0
shrinkage=0.05


Tree=8
num_leaves=31
num_cat=0
split_feature=13 13 13 13 13 13 13 13 9 9 4 9 4 9 3 4 4 9 13 11 9 11 11 11 12 12 9 8 1 11
split_gain=63270.5 14935.5 9285.05 3035.82 1711.74 1654.85 1116.37 686.002 638.798 588.034 607.558 582.505 531.247 435 429.496 401.119 400.775 385.898 367.669 354.79 341.58 315.867 314.486 293.767 300.584 303.88 285.716 268.941 266.781 262.959
threshold=1.8476259322213224 4.3080521914627807 0.88295961097584674 11.099329450030298 1.2498490970886935 2.6681194453443413 0.51633369489563596 7.1485464384712261 7.5000000000000009 6.5000000000000009 40.769540786743171 7.5000000000000009 40.768796920776374 7.5000000000000009 -73.966686248779283 40.775827407836921 40.766912460327156 6.5000000000000009 19.533702295112061 0.012351989746097304 7.5000000000000009 -0.017560958862308237 0.016798019409179691 0.016798019409179691 -0.016605377197258516 0.015693664550788359 19.500000000000004 4.5000000000000009 -73.789989471435533 0.036638259887695319
decision_type=2 2 2 2 2 2 2 2 2 2 2 2 2 2 2 2 2 2 2 2 2 2 2 2 2 2 2 2 2 2
left_child=2 5 6 7 12 11 28 17 -7 -6 21 -2 13 -4 26 -10 20 -3 -5 -16 -8 -11 -12 24 -23 -26 27 -13 -1 -17
right_child=1 3 4 18 9 8 16 -9 15 10 22 14 -14 -15 19 29 -18 -19 -20 -21 -22 23 -24 -25 25 -27 -28 -29 -30 -31
leaf_value=-0.032712127297441392 -0.0050050050824103033 0.013050934260446984 -0.020470391944770953 0.035164033788477787 -0.014533879089251809 0.0032924815878209879 -0.028893706252812318 0.028133547920620068 0.014277717909868049 0.006818270708122855 -0.012771439847684208 0.0097056551875210097 -0.020684381302474832 -0.01053584929580959 0.0036937868446712593 0.0033179097271610111 -0.028315332928744153 0.021823667781185913 0.045720722024573938 -0.0083160208199277389 -0.019116708143719834 0.0050091065667003769 0.0021392585926630916 0.0066531186245783738 -0.006482000839581923 0.0027453274536830292 0.00095948860496805448 0.0023419650360681594 -0.067014055496512501 0.019087713029727046
leaf_weight=35634 21152 15940 13080 18299 16303 22690 10735 38985 74747 8244 25602 43067 23031 69922 13715 15268 24167 58692 15016 11148 53234 7967 4103 6710 64540 10354 22256 17413 576 3197
leaf_count=35634 21152 15940 13080 18299 16303 22690 10735 38985 74747 8244 25602 43067 23031 69922 13715 15268 24167 58692 15016 11148 53234 7967 4103 6710 64540 10354 22256 17413 576 3197
internal_value=2.40838e-11 0.0140494 -0.014702 0.0266498 -0.00914578 0.00648192 -0.0258665 0.022758 0.0108161 -0.00559233 -0.00444919 0.0025803 -0.0139657 -0.0121014 0.00407143 0.0126475 -0.0228298 0.01995 0.0399222 -0.00169114 -0.0207574 -0.00254729 -0.0107119 -0.00340929 -0.00422413 -0.00520633 0.00580314 0.00758555 -0.0332578 0.00604827
internal_weight=765787 391585 374202 146932 249856 244653 124346 113617 115902 143823 127520 128751 106033 83002 107599 93212 88136 74632 33315 24863 63969 97815 29705 89571 82861 74894 82736 60480 36210 18465
internal_count=765787 391585 374202 146932 249856 244653 124346 113617 115902 143823 127520 128751 106033 83002 107599 93212 88136 74632 33315 24863 63969 97815 29705 89571 82861 74894 82736 60480 36210 18465
is_linear=0
shrinkage=0.05


Tree=9
num_leaves=31
num_cat=0
split_feature=13 13 13 13 13 13 13 4 9 9 13 9 9 3 11 9 8 11 11 9 13 13 4 9 9 8 9 8 4 11
split_gain=57148.5 11621.5 9944.8 2330.65 1744.79 1487.52 1322.2 596.201 544.691 527.283 511.594 510.003 501.069 448.79 414.697 407.473 417.194 357.045 387.382 343.471 332.224 875.441 328.766 323.502 375.108 310.706 294.342 337.053 318.522 282.064
threshold=2.0197371638527923 4.7720672347817157 0.94542570882793819 11.909543731862096 1.4293402896482112 3.0247297001667062 0.62518811857735113 40.769540786743171 7.5000000000000009 7.5000000000000009 7.8890464465421521 7.5000000000000009 6.5000000000000009 -73.967823028564453 -0.026464462280276987 18.500000000000004 4.5000000000000009 -0.008602142333987926 0.0084953308105504294 18.500000000000004 0.057721837256050228 1.0000000180025095e-35 40.766912460327156 5.5000000000000009 19.500000000000004 4.5000000000000009 18.500000000000004 4.5000000000000009 40.745996475219734 0.0086898803710973044
decision_type=2 2 2 2 2 2 2 2 2 2 2 2 2 2 2 2 2 2 2 2 2 2 2 2 2 2 2 2 2 2
left_child=2 5 6 10 7 9 20 11 -7 -2 -3 -4 -6 -14 -11 16 -16 -8 22 25 21 -1 -19 -5 -25 -10 27 28 -13 -15
right_child=1 3 4 23 12 8 17 -9 19 14 -12 26 13 29 15 -17 -18 18 -20 -21 -22 -23 -24 24 -26 -27 -28 -29 -30 -31
leaf_value=-0.021288591152356207 -0.0025991063914170367 0.020283944395610699 -0.017253307923247623 0.025325820904929287 -0.011545262960483516 0.0051513632934515399 -0.010189134988990354 -0.017523108367729464 0.019817471917250425 0.015278165902889712 0.027921218874481259 -0.0092060735370613888 -0.00015534555412054368 -0.0030058874831466447 0.0097551365854671515 0.00044364985494009491 0.00083138928539438605 -0.019928646668114728 -0.011424923679604633 0.010323801168340233 -0.028009094971113216 -0.058495883291913547 -0.027939949641926826 0.044162418277552094 0.030448990049571717 0.011011680061782979 -0.011992196858468654 -0.012257311590995619 -0.00057125074892523393 -0.013870793218515379
leaf_weight=3117 22650 65324 17150 3934 14873 20215 9140 28109 32200 10406 33007 16868 89628 13457 45139 34924 18451 48907 9905 31513 50867 3208 17349 19723 6674 14541 29117 15536 29113 10742
leaf_count=3117 22650 65324 17150 3934 14873 20215 9140 28109 32200 10406 33007 16868 89628 13457 45139 34924 18451 48907 9905 31513 50867 3208 17349 19723 6674 14541 29117 15536 29113 10742
internal_value=2.42667e-11 0.0145511 -0.0128216 0.0265851 -0.00708659 0.0078204 -0.0234708 -0.0110379 0.012468 0.00434207 0.0228476 -0.00934665 -0.00291442 -0.00178669 0.00578549 0.00478278 0.00716586 -0.019527 -0.0206476 0.0143581 -0.0293529 -0.0401599 -0.0220264 0.0387018 0.0406952 0.017078 -0.00785053 -0.00589022 -0.00373891 -0.00782885
internal_weight=765787 358701 407086 128662 264593 230039 142493 135893 98469 131570 98331 107784 128700 113827 108920 98514 63590 85301 76161 78254 57192 6325 66256 30331 26397 46741 90634 61517 45981 24199
internal_count=765787 358701 407086 128662 264593 230039 142493 135893 98469 131570 98331 107784 128700 113827 108920 98514 63590 85301 76161 78254 57192 6325 66256 30331 26397 46741 90634 61517 45981 24199
is_linear=0
shrinkage=0.05


Tree=10
num_leaves=31
num_cat=0
split_feature=13 13 13 13 13 13 13 4 4 9 9 9 9 9 9 13 9 4 12 4 4 9 4 13 13 9 9 8 11 9
split_gain=51685.1 11283.1 8344.69 2255.42 1631.93 1295.72 1285.67 516.362 478.691 475.248 474.544 458.362 454.701 433.407 430.667 426.579 383.278 380.123 371.685 335.533 319.974 291.79 308.65 290.151 581.634 289.785 289.114 285.855 270.426 286.857
threshold=2.2893693077417594 1.1420489535392411 5.5104586825878688 0.71664692007268127 15.379443217980628 3.4003169973722547 1.6813132413171752 40.773145675659187 40.766912460327156 6.5000000000000009 7.5000000000000009 6.5000000000000009 6.5000000000000009 18.500000000000004 7.5000000000000009 0.32392757071338396 7.5000000000000009 40.774736404418952 -0.099994659423821006 40.775430679321296 40.768796920776374 19.500000000000004 40.746305465698249 1.0000000180025095e-35 0.057721837256050228 7.5000000000000009 19.500000000000004 4.5000000000000009 -0.04576873779296519 18.500000000000004
decision_type=2 2 2 2 2 2 2 2 2 2 2 2 2 2 2 2 2 2 2 2 2 2 2 2 2 2 2 2 2 2
left_child=1 3 5 15 12 11 7 10 16 -7 -3 -2 -4 18 -8 23 -5 -16 -14 -13 25 22 -18 -1 -25 -17 27 -12 -11 -30
right_child=2 6 4 8 -6 9 14 -9 -10 28 26 19 13 -15 17 20 21 -19 -20 -21 -22 -23 -24 24 -26 -27 -28 -29 29 -31
leaf_value=-0.020224162820639505 -0.0013943420192697371 -0.013033084081659416 0.01720887573056612 -0.02098057791759908 0.039559572897114467 0.00652460441415793 -0.0069744386120599204 -0.013646583865000107 -0.020842282620201796 0.025345597142800071 -0.00076329880436650736 0.0090652664890127788 0.038221183835987674 0.020847146939007695 0.0030664338346716789 -0.031055047108367519 -0.014734550461703595 -0.0047317407028492449 0.026628652317101112 0.0019030666681320988 -0.030295671303078954 -0.017764190262227648 -0.0073603820071227542 -0.055571091548432594 -0.030702462574885004 -0.020534866649194773 -0.0089884452671215569 -0.0079314586940264983 0.017537689990105687 0.010930271760605369
leaf_weight=3117 16584 18136 19136 14688 21021 16428 17901 24279 30319 6895 53258 79026 8924 25149 76452 7883 24412 19642 30706 20619 17236 17787 33888 3208 8803 38592 23826 18824 42120 26928
leaf_count=3117 16584 18136 19136 14688 21021 16428 17901 24279 30319 6895 53258 79026 8924 25149 76452 7883 24412 19642 30706 20619 17236 17787 33888 3208 8803 38592 23826 18824 42120 26928
internal_value=2.43652e-11 -0.0108157 0.0156007 -0.0196877 0.0271015 0.00981529 -0.00378554 -0.00702563 -0.0154027 0.0142357 -0.00561608 0.00630228 0.0239807 0.0259811 0.000146013 -0.0262693 -0.0135859 0.00147246 0.0292391 0.00758323 -0.0244772 -0.0121585 -0.0104482 -0.0338171 -0.0373446 -0.0223193 -0.00421354 -0.00263524 0.0159037 0.0149609
internal_weight=765787 452251 313536 199933 104936 208600 252318 138323 121094 92371 114044 116229 83915 64779 113995 78839 90775 96094 39630 99645 63711 76087 58300 15128 12011 46475 95908 72082 75943 69048
internal_count=765787 452251 313536 199933 104936 208600 252318 138323 121094 92371 114044 116229 83915 64779 113995 78839 90775 96094 39630 99645 63711 76087 58300 15128 12011 46475 95908 72082 75943 69048
is_linear=0
shrinkage=0.05


Tree=11
num_leaves=31
num_cat=0
split_feature=13 13 13 13 13 13 13 13 9 3 11 11 4 9 9 9 4 9 9 8 4 9 11 9 11 11 11 12 11 9
split_gain=46696.4 11333.1 6655.44 2373.98 1189.13 1187.82 848.122 703.649 490.869 474.461 444.451 422.649 403.547 399.433 390.929 374.26 353.113 352.729 349.175 334.433 319.255 293.424 270.953 269.918 261.788 259.705 302.985 257.617 249.419 243.488
threshold=1.8181060885101121 4.1799571553613175 0.88295961097584674 8.120329150610397 1.2498490970886935 2.5924748458378617 0.49814736261036069 17.513042636142586 7.5000000000000009 -73.968166351318345 -0.023542404174808237 0.024078369140628556 40.775075912475593 7.5000000000000009 6.5000000000000009 7.5000000000000009 40.774736404418952 18.500000000000004 6.5000000000000009 4.5000000000000009 40.770261764526374 7.5000000000000009 0.017778396606441763 19.500000000000004 -0.016534805297851559 -0.012336730957027696 0.011409759521487929 -0.016605377197258516 0.0069808959960901982 6.5000000000000009
decision_type=2 2 2 2 2 2 2 2 2 2 2 2 2 2 2 2 2 2 2 2 2 2 2 2 2 2 2 2 2 2
left_child=2 5 6 15 12 10 -1 29 -7 13 -2 14 18 -6 -12 -3 -16 19 -4 -10 21 -8 24 -17 -15 -20 -27 -26 -11 -5
right_child=1 3 4 7 9 8 20 -9 17 28 11 -13 -14 22 16 23 -18 -19 25 -21 -22 -23 -24 -25 27 26 -28 -29 -30 -31
leaf_value=-0.029079598286041453 0.011208652061834325 0.012080708466827336 -0.019427646538203162 0.019388258219576359 -0.010508480592328909 0.0022388597570232056 -0.025421991761430458 0.038554400694422744 0.015298945287051922 -0.0063840518121808148 -0.0083173879125995123 0.010584921620169031 -0.019544474893806781 0.0051690766235046844 0.0026936602780260419 0.021741461410956214 -0.0048695164546479278 0.006583163648981716 5.9448009233533342e-06 0.0070710241977983805 -0.02514145179630093 -0.016688716951332207 0.0077995844276095355 0.015233112739720717 0.0042585291241954521 -0.011512869850115015 -0.00061693386083061963 -0.0048827069332515695 -0.015772430482950558 0.028711818380880105
leaf_weight=33253 11481 23476 10276 8860 17019 23002 11511 18033 40674 15328 12607 10236 15224 8983 72030 44074 19641 37429 6421 17735 21099 58483 6344 24948 8688 67061 7051 68281 13138 33401
leaf_count=33253 11481 23476 10276 8860 17019 23002 11511 18033 40674 15328 12607 10236 15224 8983 72030 44074 19641 37429 6421 17735 21099 58483 6344 24948 8688 67061 7051 68281 13138 33401
internal_value=3.67492e-11 0.0118806 -0.0128315 0.022566 -0.00803055 0.00521221 -0.022245 0.0302855 0.00879816 -0.00496731 0.0018299 0.000889604 -0.012011 -0.00347004 -6.20949e-05 0.0175342 0.00107321 0.0103725 -0.010748 0.0128007 -0.0197501 -0.018125 -0.00217218 0.019389 -0.00290818 -0.00964048 -0.0104762 -0.00385088 -0.0107171 0.0267571
internal_weight=765787 397627 368160 152792 243814 244835 124346 60294 118840 137781 125995 114514 106033 109315 104278 92498 91671 95838 90809 58409 91093 69994 92296 69022 85952 80533 74112 76969 28466 42261
internal_count=765787 397627 368160 152792 243814 244835 124346 60294 118840 137781 125995 114514 106033 109315 104278 92498 91671 95838 90809 58409 91093 69994 92296 69022 85952 80533 74112 76969 28466 42261
is_linear=0
shrinkage=0.05


Tree=12
num_leaves=31
num_cat=0
split_feature=13 13 13 13 13 13 13 4 11 11 9 9 9 9 8 9 4 11 9 9 9 13 8 8 13 13 11 9 11 4
split_gain=42144.6 9479.03 6662.73 1724.5 1329.7 1253.83 1045.72 449.579 418.084 510.561 407.121 404.916 401.335 398.868 449.694 390.033 385.962 335.965 328.077 311.447 349.809 305.011 280.004 265.516 261.861 524.924 261.693 251.879 246.785 316.545
threshold=2.3293001677605072 1.1098934094987236 6.2332994984370709 0.67948354540274969 3.5292027435703974 1.6412505962833375 15.379443217980628 40.766912460327156 -0.009422302246097301 0.0098724365234410544 6.5000000000000009 7.5000000000000009 7.5000000000000009 18.500000000000004 4.5000000000000009 7.5000000000000009 40.766592025756843 0.014665603637691762 19.500000000000004 6.5000000000000009 18.500000000000004 0.32392757071338396 4.5000000000000009 4.5000000000000009 1.0000000180025095e-35 0.057721837256050228 -0.047700881958018464 19.500000000000004 -0.015285491943355821 40.747636795043952
decision_type=2 2 2 2 2 2 2 2 2 2 2 2 2 2 2 2 2 2 2 2 2 2 2 2 2 2 2 2 2 2
left_child=1 3 4 21 11 7 19 15 -5 16 -6 -2 -7 14 -14 -3 -10 -9 23 -4 22 24 -21 -13 -1 -26 -12 -28 -17 -30
right_child=2 5 6 8 10 12 -8 17 9 -11 26 18 13 -15 -16 28 -18 -19 -20 20 -22 -23 -24 -25 25 -27 27 -29 29 -31
leaf_value=-0.017758974994428006 -3.006301702695744e-05 -0.012069915661493047 0.016652011454487772 -0.0063677954129790207 0.0072900958297849776 -0.0064484775113843986 0.035736888877757472 -0.013943966402320951 -0.014926991121509742 -0.0058560985353828011 0.023317188210510154 0.011385485993169825 0.0058470044860860684 -0.0030365070663025649 -0.0029236148676716873 0.0043188909918843608 -0.022206482756981422 -8.9775141344362819e-06 0.0030014413887962769 0.030805892482463113 0.019534536866893586 -0.022648027580608715 0.019949254506294103 0.0045334168723041119 -0.051338555186318052 -0.027713359321545762 0.016433017394507511 0.010167897653126994 -0.0081945342898269401 -0.0018314605071828368
leaf_weight=3117 21960 17327 15195 13926 18994 20264 21021 28760 70745 11998 9284 48207 51794 36592 20360 8347 24520 5091 28668 23531 19435 54533 7944 20005 3208 8803 49608 23710 35816 43024
leaf_count=3117 21960 17327 15195 13926 18994 20264 21021 28760 70745 11998 9284 48207 51794 36592 20360 8347 24520 5091 28668 23531 19435 54533 7944 20005 3208 8803 49608 23710 35816 43024
internal_value=-4.00313e-12 -0.00960979 0.0143173 -0.0181217 0.00969066 -0.00353407 0.026023 -0.00684026 -0.0145183 -0.0155764 0.0138907 0.0061001 1.18684e-05 0.00121571 0.00337216 -0.00521823 -0.0168006 -0.0118482 0.00748964 0.022934 0.024809 -0.0243906 0.0280658 0.00937593 -0.0306722 -0.0340234 0.0154084 0.014407 -0.00385657 -0.00472212
internal_weight=765787 458225 307562 190850 220436 267375 87126 138365 121189 107263 101596 118840 129010 108746 72154 104514 95265 33851 96880 66105 50910 69661 31475 68212 15128 12011 82602 73318 87187 78840
internal_count=765787 458225 307562 190850 220436 267375 87126 138365 121189 107263 101596 118840 129010 108746 72154 104514 95265 33851 96880 66105 50910 69661 31475 68212 15128 12011 82602 73318 87187 78840
is_linear=0
shrinkage=0.05


Tree=13
num_leaves=31
num_cat=0
split_feature=13 13 13 13 13 13 13 11 11 3 11 9 9 9 8 9 11 11 4 4 9 11 11 9 9 9 8 9 4 9
split_gain=38112.9 9273.96 5445.23 1772.35 1161.45 969.75 698.746 427.911 418.628 412.943 406.094 403.4 398.862 406.544 385.202 366.168 344.684 394.124 355.748 337.323 328.142 299.773 341.566 286.849 383.656 269.401 278.464 261.063 255.116 251.04
threshold=1.8181060885101121 4.4466900288873612 0.88295961097584674 11.099329450030298 2.6947400186901729 1.2498490970886935 0.49814736261036069 -0.024080276489257809 -0.036870956420901983 -73.968166351318345 0.025180816650394181 6.5000000000000009 7.5000000000000009 18.500000000000004 4.5000000000000009 6.5000000000000009 -0.011606216430664061 0.011875152587887074 40.774736404418952 40.775075912475593 7.5000000000000009 -0.0074577331542933214 0.0081138610839879294 6.5000000000000009 18.500000000000004 18.500000000000004 4.5000000000000009 6.5000000000000009 40.766321182250984 19.500000000000004
decision_type=2 2 2 2 2 2 2 2 2 2 2 2 2 2 2 2 2 2 2 2 2 2 2 2 2 2 2 2 2 2
left_child=2 4 6 12 7 16 -1 -2 -6 20 15 -10 -3 14 -14 -9 -4 18 27 -17 -7 -8 28 -5 -25 26 -13 -18 -23 -22
right_child=1 3 5 23 8 9 21 10 11 -11 -12 25 13 -15 -16 19 17 -19 -20 -21 29 22 -24 24 -26 -27 -28 -29 -30 -31
leaf_value=-0.026310691757855137 0.010784841092269931 0.012733705375557387 -0.0019649202555728934 0.021080243153904318 0.017997356573390657 -0.0094661664526772202 -0.010200897843882825 -0.0073032782469479021 0.00061271947995039623 -0.0098476155356990412 0.010753070400460201 0.013371700648081422 0.025562506675289212 0.015454580762122062 0.015566176905685285 0.0027784944009693596 -0.019823741734141698 -0.00192551175845662 -0.020482026895896351 -0.0042950454709680917 -0.00039936754711615341 -0.018152993480217892 -0.0094453106980168615 0.037451526282013176 0.024925306990503004 0.0055094023005079172 0.0057039908299052 -0.010414722229845387 -0.024765472792384533 -0.0064106665636306896
leaf_weight=33253 12456 27624 9908 5872 10973 17019 11249 14148 16741 28466 9962 40699 33513 33090 13527 79804 8303 9212 12849 21367 69097 50897 8501 18252 9191 33709 16699 65761 20446 23199
leaf_count=33253 12456 27624 9908 5872 10973 17019 11249 14148 16741 28466 9962 40699 33513 33090 13527 79804 8303 9212 12849 21367 69097 50897 8501 18252 9191 33709 16699 65761 20446 23199
internal_value=4.46932e-12 0.0107333 -0.0115924 0.021031 0.00507105 -0.0072498 -0.0201071 0.00194642 0.00869312 -0.00448351 0.00106766 0.00774646 0.0179148 0.0197009 0.0226879 0.000230976 -0.0108443 -0.0117596 -0.0128019 0.00128458 -0.00308668 -0.0178426 -0.0189192 0.0311102 0.0332563 0.00905729 0.0111409 -0.0114695 -0.020048 -0.00191033
internal_weight=765787 397627 368160 141069 256558 243814 124346 137737 118821 137781 125281 107848 107754 80130 47040 115319 106033 96125 86913 101171 109315 91093 79844 33315 27443 91107 57398 74064 71343 92296
internal_count=765787 397627 368160 141069 256558 243814 124346 137737 118821 137781 125281 107848 107754 80130 47040 115319 106033 96125 86913 101171 109315 91093 79844 33315 27443 91107 57398 74064 71343 92296
is_linear=0
shrinkage=0.05


Tree=14
num_leaves=31
num_cat=0
split_feature=13 13 13 13 13 13 13 11 11 11 4 11 13 9 4 4 9 9 4 9 9 8 9 12 11 8 11 4 11 11
split_gain=34406.8 7651.12 5506.56 1513.01 1108.29 973.168 634.199 412.928 397.554 451.618 402.644 379.534 371.112 364.486 364.322 334.843 338.329 326.997 304.101 300.686 292.327 306.251 267.933 263.369 275.18 262.816 255.104 253.092 245.394 274.761
threshold=1.9243248118620289 4.6014056383326905 0.88295961097584674 11.909543731862096 1.3038809538797378 2.8937353937015828 0.5508613692347879 -0.026464462280276987 -0.017919540405266329 0.017778396606441763 40.774736404418952 0.026428222656253556 7.6419495404857907 7.5000000000000009 40.766912460327156 40.779714584350593 7.5000000000000009 7.5000000000000009 40.775827407836921 7.5000000000000009 18.500000000000004 4.5000000000000009 19.500000000000004 0.0042800903320383563 0.0049114227294921884 4.5000000000000009 -0.061540603637695306 40.747312545776374 -0.008220672607425426 0.0081138610839879294
decision_type=2 2 2 2 2 2 2 2 2 2 2 2 2 2 2 2 2 2 2 2 2 2 2 2 2 2 2 2 2 2
left_child=2 5 6 12 14 7 -1 -2 -6 10 17 15 26 -7 19 16 -9 -10 -15 -4 21 -18 25 -16 -25 -19 -3 -21 -8 -30
right_child=1 3 4 -5 8 13 28 11 9 -11 -12 -13 -14 18 23 -17 20 22 -20 27 -22 -23 -24 24 -26 -27 -28 -29 29 -31
leaf_value=-0.024091113787849693 0.011961178816463497 0.025317641513524516 -0.01487933765123353 0.030149566272695341 0.0057846050561300051 0.0032151241046594493 -0.0081319207529761215 -0.0042980188591015154 -0.010316164999653613 0.0052667624162179337 -0.0114454573598698 0.010942350847803754 0.021571164419800226 0.012082066766245745 -0.01057951126527551 -0.005518054013084743 0.008049167203565577 0.0010236986068591391 0.004486497285085279 -0.010196922705468764 -0.00060150135235958753 -0.00031456152526964103 -0.0073914613784054704 -0.0095206403790653524 -0.025256632158982818 -0.0062465703479908964 0.014374328377053623 -0.0044467885814634565 -0.018524375926177845 -0.0089730452361288012
leaf_weight=42118 11039 5820 14706 30331 10927 21033 7839 16879 15942 11651 20403 10579 36058 66750 16530 16625 38227 47011 16419 35277 28667 15336 21147 4110 8574 16899 62676 41825 65888 8501
leaf_count=42118 11039 5820 14706 30331 10927 21033 7839 16879 15942 11651 20403 10579 36058 66750 16530 16625 38227 47011 16419 35277 28667 15336 21147 4110 8574 16899 62676 41825 65888 8501
internal_value=2.14467e-11 0.0107785 -0.0104212 0.0203177 -0.006348 0.00545182 -0.0191018 0.00268757 -0.00338348 -0.00413641 -0.00503884 0.00187711 0.0174655 0.00909546 -0.00987489 0.00104848 0.00214998 -0.00374462 0.0105826 -0.00832737 0.00347353 0.00565449 -0.00251294 -0.0147381 -0.0201577 -0.000898697 0.0153042 -0.00707769 -0.0165462 -0.0174329
internal_weight=765787 376439 389348 134885 265002 241554 124346 137352 143980 133053 121402 126313 104554 104202 121022 115734 99109 100999 83169 91808 82230 53563 85057 29214 12684 63910 68496 77102 82228 74389
internal_count=765787 376439 389348 134885 265002 241554 124346 137352 143980 133053 121402 126313 104554 104202 121022 115734 99109 100999 83169 91808 82230 53563 85057 29214 12684 63910 68496 77102 82228 74389
is_linear=0
shrinkage=0.05


Tree=15
num_leaves=31
num_cat=0
split_feature=13 13 13 13 13 13 13 13 11 11 4 4 11 11 12 12 9 11 11 9 9 9 9 8 9 4 8 4 9 8
split_gain=31086.1 7675.18 4369.45 1625.53 894.808 807.633 479.229 464.912 380.806 352.824 357.677 350.611 346.539 392.545 350.391 402.554 336.788 329.27 332.632 293.72 290.575 270.664 295.902 276.371 234.645 243.528 232.531 230.53 222.332 223.02
threshold=1.8049275868532686 4.1799571553613175 0.84078840567576496 8.3046963887834995 1.2498490970886935 2.568753542856427 0.49814736261036069 17.513042636142586 -0.034605026245117181 0.036638259887695319 40.781469345092781 40.773145675659187 -0.011157989501949571 0.011409759521487929 -0.011528015136711643 0.011329650878913357 7.5000000000000009 -0.023002624511722299 0.024078369140628556 7.5000000000000009 7.5000000000000009 6.5000000000000009 19.500000000000004 4.5000000000000009 7.5000000000000009 40.766321182250984 5.5000000000000009 40.776216506958015 19.500000000000004 4.5000000000000009
decision_type=2 2 2 2 2 2 2 2 2 2 2 2 2 2 2 2 2 2 2 2 2 2 2 2 2 2 2 2 2 2
left_child=2 5 6 20 12 17 -1 -5 -7 10 16 19 -4 14 -14 27 -10 -2 21 -6 -3 -19 23 -23 -8 -26 -21 -16 29 -22
right_child=1 3 4 7 11 8 24 -9 9 -11 -12 -13 13 -15 15 -17 -18 18 -20 26 28 22 -24 -25 25 -27 -28 -29 -30 -31
leaf_value=-0.023790601452220395 0.0091796912830837615 0.0097015165133298702 -0.0019926556834720908 0.022039198257612313 -0.0088083805161525766 0.015546208406324886 -0.023129508478647896 0.031734461535838906 0.00024386894692238035 0.016121827077933023 -0.00228152523125068 -0.0095255376565307123 -0.0032455482454244663 -0.0021362391708363636 -0.013274842901857827 -0.0043392312447064537 0.0080316194917695091 -0.0071851343424543801 0.0093108938576350244 -0.00088188362198824961 0.020430971669451833 0.004193789526760517 -0.0043412153600865507 -0.0029582856659350516 -0.013506353122394893 -0.020052793899247447 -0.0086885464361412101 -0.02117717252932156 0.012310925701965699 0.012818317702981787
leaf_weight=33253 12205 24187 11903 39339 17776 11995 11830 18033 17256 8228 13317 24567 10133 11200 62633 11396 71015 12538 9865 81850 31891 50345 22402 18460 46811 20396 10797 10824 25565 13777
leaf_count=33253 12205 24187 11903 39339 17776 11995 11830 18033 17256 8228 13317 24567 10133 11200 62633 11396 71015 12538 9865 81850 31891 50345 22402 18460 46811 20396 10797 10824 25565 13777
internal_value=2.77041e-11 0.00962295 -0.0105461 0.0184356 -0.00690389 0.00418532 -0.0187548 0.0250866 0.00708735 0.00616341 0.00535684 -0.00412315 -0.0100826 -0.0109895 -0.0120334 -0.0130828 0.0065092 0.00137565 0.00053727 -0.00292122 0.0144366 -0.000297005 0.00064989 0.00227493 -0.0166361 -0.0154931 -0.00179167 -0.0144393 0.0160444 0.0181344
internal_weight=765787 400418 365369 152792 253079 247626 112290 57372 121811 109816 101588 134990 118089 106186 94986 84853 88271 125815 113610 110423 95420 103745 91207 68805 79037 67207 92647 73457 71233 45668
internal_count=765787 400418 365369 152792 253079 247626 112290 57372 121811 109816 101588 134990 118089 106186 94986 84853 88271 125815 113610 110423 95420 103745 91207 68805 79037 67207 92647 73457 71233 45668
is_linear=0
shrinkage=0.05


Tree=16
num_leaves=31
num_cat=0
split_feature=13 13 13 13 13 13 13 13 3 11 3 11 9 11 11 9 11 4 11 11 12 12 9 9 11 11 11 12 4 8
split_gain=28058.6 7014.29 3877.43 1516.28 778.051 710.681 445.818 432.504 356.705 336.061 318.767 352.361 312.473 297.06 329.885 285.366 275.962 275.91 265.17 274.658 290.71 296.355 252.175 252.141 224.963 244.086 220.889 230.566 219.118 212.038
threshold=1.7909583750992533 4.1160414223285011 0.84078840567576496 8.120329150610397 1.2166392729146858 2.568753542856427 19.533702295112061 0.49814736261036069 -73.968166351318345 -0.034605026245117181 -73.967075347900376 0.012351989746097304 6.5000000000000009 -0.011157989501949571 0.011190414428710939 7.5000000000000009 -0.054706573486328118 40.766321182250984 0.016490936279300431 -0.015893936157226559 -0.015945434570305391 0.014877319335930396 6.5000000000000009 19.500000000000004 -0.0072631835937464464 0.0073509216308629286 0.0069808959960901982 0.0057601928710724346 40.66888618469239 4.5000000000000009
decision_type=2 2 2 2 2 2 2 2 2 2 2 2 2 2 2 2 2 2 2 2 2 2 2 2 2 2 2 2 2 2
left_child=2 5 7 16 13 10 -5 28 18 -7 15 -12 -11 -4 17 -2 -3 -15 19 -6 -21 -22 -18 29 -9 -26 -10 -28 -1 -14
right_child=1 3 4 6 8 9 -8 24 26 12 11 -13 23 14 -16 -17 22 -19 -20 20 21 -23 -24 -25 25 -27 27 -29 -30 -31
leaf_value=-0.048079200664344721 -0.0033713621585045941 0.020687743615713031 -0.001794675095820594 0.021111934158456205 0.0035292185501469989 0.014848428471428513 0.031053734447106969 -0.0087435094910378788 -0.0051196756799582127 -0.00063366259337827014 0.001350483174522998 -0.009761254682031463 0.010393343815227624 -0.010037734903369623 -0.0023141346337360378 0.0038130601600677386 0.0072207487261378243 -0.016489524773072577 0.0047892782287352609 0.0028776760915285096 -0.0068836974152306678 0.002130001693106562 0.013895380558434943 0.0028034019203965724 -0.018007380285220129 -0.0094311507571452104 -0.0021578776855026749 -0.017569251828152437 -0.021954494230432241 0.0040495223039976489
leaf_weight=823 16585 11610 10446 45278 11713 11258 15016 9872 15774 16188 16979 12305 46289 65597 10561 82953 18016 22172 10177 11340 68473 10520 65963 26574 59525 9640 3194 10105 32430 18411
leaf_count=823 16585 11610 10446 45278 11713 11258 15016 9872 15774 16188 16979 12305 46289 65597 10561 82953 18016 22172 10177 11340 68473 10520 65963 26574 59525 9640 3194 10105 32430 18411
internal_value=2.27442e-11 0.00907065 -0.0100985 0.0173788 -0.00663271 0.0038388 0.0235879 -0.017817 -0.00418565 0.00662952 0.00126693 -0.00331862 0.00576849 -0.00981134 -0.010663 0.00261599 0.0134624 -0.0116676 -0.00290697 -0.00367451 -0.00460858 -0.00568329 0.0124635 0.00690395 -0.0158043 -0.0168121 -0.00912143 -0.0138679 -0.0226011 0.00858815
internal_weight=765787 403425 362362 155883 250072 247542 60294 112290 141296 118720 128822 29284 107462 108776 98330 99538 95589 87769 112223 102046 90333 78993 83979 91274 79037 69165 29073 13299 33253 64700
internal_count=765787 403425 362362 155883 250072 247542 60294 112290 141296 118720 128822 29284 107462 108776 98330 99538 95589 87769 112223 102046 90333 78993 83979 91274 79037 69165 29073 13299 33253 64700
is_linear=0
shrinkage=0.05


Tree=17
num_leaves=31
num_cat=0
split_feature=13 13 13 13 13 13 13 11 11 12 12 11 11 11 11 12 12 9 3 4 4 9 9 9 8 9 4 4 9 9
split_gain=25373.1 5476.31 4316.55 915.014 859.079 774.784 731.019 368.92 437.069 380.188 484.473 341.803 371.752 313.825 332.907 307.633 416.806 288.741 284.702 280.932 279.28 269.578 264.292 281.855 365.298 262.116 252.798 216.208 214.655 211.932
threshold=2.270128695322994 1.0379387904545492 5.8473011849232508 1.5642881466087675 0.66604147371130662 3.4003169973722547 15.379443217980628 -0.014141082763675426 0.014389038085941054 -0.013824462890617893 0.013107299804694607 -0.02025985717774503 0.021230697631839494 -0.030021667480465194 0.031686782836917622 -0.018436431884772727 0.018188476562507109 7.5000000000000009 -73.966686248779283 40.781469345092781 40.783456802368171 6.5000000000000009 6.5000000000000009 19.500000000000004 4.5000000000000009 7.5000000000000009 40.772020339965827 40.780118942260749 7.5000000000000009 18.500000000000004
decision_type=2 2 2 2 2 2 2 2 2 2 2 2 2 2 2 2 2 2 2 2 2 2 2 2 2 2 2 2 2 2
left_child=1 4 5 7 21 13 20 -3 9 -9 26 -5 15 -2 19 -13 18 -7 -17 25 -4 -1 -6 24 -24 -15 28 -19 -11 -27
right_child=2 3 6 11 22 17 -8 8 -10 10 -12 12 -14 14 -16 16 -18 27 -20 -21 -22 -23 23 -25 -26 29 -28 -29 -30 -31
leaf_value=-0.027457971471894955 0.012371107255207289 0.0021337424071347011 0.018970989365685073 0.0072960686069953361 -0.019158874622317145 0.0051803335883689973 0.027928633834231605 0.00034587018437427455 0.0021695619361014758 -0.01548413655988283 -0.00094809067516239383 0.0048554745025577682 0.0078027802295988352 -0.0021022649341235723 0.01330486840404136 -0.0029988444293148632 0.0042069641950451282 0.012770386361953183 -0.010252777919174765 -0.0041553118198272409 0.011534225182123596 -0.017938333690260055 -0.0076377156470559676 -0.016433190086636924 -0.015977183899838029 0.0070409461388972515 -0.015700590527407392 0.0056531743628609708 -0.0078277018971739578 0.0013759656963584499
leaf_weight=8533 10835 12254 58974 12949 11107 22297 21021 12578 11945 10791 16362 14091 10420 15953 7937 66721 16585 66232 16966 13116 16063 57886 56115 18931 17143 45524 17476 12720 60358 25904
leaf_count=8533 10835 12254 58974 12949 11107 22297 21021 12578 11945 10791 16362 14091 10420 15953 7937 66721 16585 66232 16966 13116 16063 57886 56115 18931 17143 45524 17476 12720 60358 25904
internal_value=1.47369e-11 -0.00764041 0.0108415 -0.00333851 -0.014725 0.0069881 0.0196877 -0.00615838 -0.00694297 -0.00786883 -0.008853 -0.000436077 -0.00123846 0.00425742 0.00344668 -0.00206224 -0.00303437 0.0102048 -0.00446945 0.0026681 0.017379 -0.0191613 -0.0118725 -0.0109946 -0.00958922 0.00369231 -0.0103124 0.0116237 -0.00898894 0.00498649
internal_weight=765787 449211 316576 279496 169715 220518 96058 141764 129510 117565 104987 137732 124783 119269 108434 114363 100272 101249 83687 100497 75037 66419 103296 92189 73258 87381 88625 78952 71149 71428
internal_count=765787 449211 316576 279496 169715 220518 96058 141764 129510 117565 104987 137732 124783 119269 108434 114363 100272 101249 83687 100497 75037 66419 103296 92189 73258 87381 88625 78952 71149 71428
is_linear=0
shrinkage=0.05


Tree=18
num_leaves=31
num_cat=0
split_feature=13 13 13 13 13 13 13 11 11 4 11 11 11 11 12 12 11 11 3 4 9 4 9 9 4 11 9 9 9 9
split_gain=22907.5 5218.39 3678.72 1056.79 739.242 641.532 551.385 312.496 314.495 327.341 300.282 323.934 295.62 343.422 308.629 379.294 290.285 349.421 287.993 286.241 282.603 265.492 257.798 243.898 238.597 234.748 231.05 218.003 217.646 213.538
threshold=2.3486725651953448 1.1420489535392411 6.3794490818077367 0.72877114159701628 3.8786966074978415 1.6154207330354142 17.513042636142586 -0.032602310180664056 0.033512115478512079 40.779714584350593 -0.021568298339843747 0.021699905395507816 0.015258789062503554 -0.014984130859371446 0.014877319335930396 -0.013286590576171873 0.010517120361331679 -0.010251998901374291 -73.958835601806626 40.774736404418952 7.5000000000000009 40.775430679321296 7.5000000000000009 19.500000000000004 40.785238265991218 -0.054706573486328118 7.5000000000000009 6.5000000000000009 6.5000000000000009 19.500000000000004
decision_type=2 2 2 2 2 2 2 2 2 2 2 2 2 2 2 2 2 2 2 2 2 2 2 2 2 2 2 2 2 2
left_child=1 3 4 18 7 12 24 -2 9 20 -7 19 13 -3 15 -15 17 -5 26 22 -9 28 -12 -24 -4 -6 -1 -27 -19 -30
right_child=2 5 6 16 25 10 -8 8 -10 -11 11 -13 -14 14 -16 -17 -18 21 -20 -21 -22 -23 23 -25 -26 27 -28 -29 29 -31
leaf_value=-0.022839916881835835 0.012639003940649395 0.0028340548411890706 0.018965363397573685 -0.0025742543581046403 0.02047877291608869 0.0077446010397558586 0.027281785138077882 -0.00091370909315962624 0.012770723386415645 -0.0029863082656550704 -0.006225824285184668 0.0074235344529567831 0.0031052960171504933 -0.00029561210399272166 0.0012648116759731627 -0.0089972973397147576 -0.002148244218550515 -0.017944303355549803 -0.024102106237123451 -0.0066113534088719055 0.0059035351639641397 -0.018230228777401596 0.0025238627011152119 -0.0038801027212698475 0.011587913972475392 0.0047983848346232379 -0.014882167672807551 0.011502207098775146 -0.0084355380404550311 -0.015065697751532686
leaf_weight=10844 12128 10604 52271 11389 5991 11394 18033 18816 9923 16664 15318 11109 10327 14975 11076 76482 10508 9336 13649 22247 79146 13890 57625 20038 13867 15030 57424 62790 57497 15396
leaf_count=10844 12128 10604 52271 11389 5991 11394 18033 18816 9923 16664 15318 11109 10327 14975 11076 76482 10508 9336 13649 22247 79146 13890 57625 20038 13867 15030 57424 62790 57497 15396
internal_value=1.06962e-11 -0.00702913 0.0106392 -0.0131086 0.0072445 -0.00237554 0.0195317 0.00497739 0.00423134 0.0034921 -2.94185e-05 -0.000730537 -0.00499278 -0.00573196 -0.00661786 -0.0075725 -0.0100801 -0.0108553 -0.0174718 -0.00151666 0.00459412 -0.0118365 -0.000297685 0.000871562 0.0174186 0.0109417 -0.0161462 0.0102074 -0.0107565 -0.00983592
internal_weight=765787 461128 304659 199933 220488 261195 84171 136677 124549 114626 137731 126337 123464 113137 102533 91457 118016 107508 81917 115228 97962 96119 92981 77663 66138 83811 68268 77820 82229 72893
internal_count=765787 461128 304659 199933 220488 261195 84171 136677 124549 114626 137731 126337 123464 113137 102533 91457 118016 107508 81917 115228 97962 96119 92981 77663 66138 83811 68268 77820 82229 72893
is_linear=0
shrinkage=0.05


Tree=19
num_leaves=31
num_cat=0
split_feature=13 13 13 13 13 13 13 9 9 8 9 11 11 4 3 11 9 9 8 9 9 3 11 11 3 9 9 9 9 8
split_gain=20679.6 4837.79 3215.94 1011.54 625.063 568.243 500.147 309.127 291.597 409.141 281.074 269.811 277.094 279.23 257.749 273.31 256.893 269.862 403.648 240.613 227.96 226.793 223.782 213.893 201.891 200.593 194.383 189.957 227.832 182.638
threshold=2.3884716401975288 1.1636616962566408 6.3794490818077367 0.76408952603554936 3.8786966074978415 1.7081973846966247 15.379443217980628 6.5000000000000009 18.500000000000004 4.5000000000000009 6.5000000000000009 -0.032602310180664056 0.034511566162112935 40.777486801147468 -73.967075347900376 0.011646270751956679 6.5000000000000009 18.500000000000004 4.5000000000000009 7.5000000000000009 7.5000000000000009 -73.96038436889647 0.016490936279300431 -0.05219459533690695 -73.976634979248033 19.500000000000004 6.5000000000000009 6.5000000000000009 18.500000000000004 4.5000000000000009
decision_type=2 2 2 2 2 2 2 2 2 2 2 2 2 2 2 2 2 2 2 2 2 2 2 2 2 2 2 2 2 2
left_child=1 3 4 10 11 7 22 -3 9 -9 -1 -2 13 19 20 -16 -5 18 -18 -13 -7 -12 -4 -6 -10 29 -25 -8 -29 -22
right_child=2 5 6 16 23 14 27 8 24 -11 21 12 -14 -15 15 -17 17 -19 -20 -21 25 -23 -24 26 -26 -27 -28 28 -30 -31
leaf_value=-0.023631854539999088 0.011995544556230116 -0.010909863738480113 0.018793989164046565 -0.016024516182933407 0.01829199884798316 -0.0039034663317166897 0.014256588160323491 0.00021895424842877415 -0.0046770398702787501 -0.0077455980282095487 -0.013932416524798994 -0.00057307939842434874 0.012884848990047344 -0.0020019883916433802 0.00034451267206337733 -0.0098922944839360608 -0.0047163975917847503 -0.012448045406008794 -0.013458665827764813 0.0058978155850790666 0.0059541247566016059 -0.020835077455511202 0.012733918755696981 0.0044326838436531436 -0.012688462492312631 -0.0014683171319747436 0.010826774548675863 0.031001535214821775 0.01861709810988765 -0.00020824400300490449
leaf_weight=11251 12041 15463 37488 12251 7778 15534 3318 63750 26068 21584 65289 17870 8418 19226 15723 11140 56546 29037 17226 73261 42399 14552 25662 14746 11261 21132 61287 12402 5301 16783
leaf_count=11251 12041 15463 37488 12251 7778 15534 3318 63750 26068 21584 65289 17870 8418 19226 15723 11140 56546 29037 17226 73261 42399 14552 25662 14746 11261 21132 61287 12402 5301 16783
internal_value=1.79138e-11 -0.00657239 0.0102719 -0.0122968 0.0070235 -0.00204811 0.0185551 -0.00424777 -0.00340794 -0.00179556 -0.0162331 0.00486371 0.00414071 0.00347371 0.000427881 -0.00390066 -0.00918045 -0.00836489 -0.00675775 0.00462893 0.00164103 -0.0151905 0.0163314 0.0103946 -0.00709384 0.00271342 0.00958669 0.0252354 0.0272931 0.00420658
internal_weight=765787 466989 298798 206152 214627 260837 84171 138126 122663 85334 91092 130816 118775 110357 122711 26863 115060 102809 73772 91131 95848 79841 63150 83811 37329 80314 76033 21021 17703 59182
internal_count=765787 466989 298798 206152 214627 260837 84171 138126 122663 85334 91092 130816 118775 110357 122711 26863 115060 102809 73772 91131 95848 79841 63150 83811 37329 80314 76033 21021 17703 59182
is_linear=0
shrinkage=0.05


Tree=20
num_leaves=31
num_cat=0
split_feature=13 13 13 13 13 13 13 11 11 12 12 11 11 11 11 11 11 12 12 12 12 4 9 9 8 4 9 4 9 8
split_gain=18676.8 3616.89 3608.23 659.166 644.964 608.904 534.509 293.284 355.852 315.708 408.255 278.626 304.843 262.646 280.689 255.072 315.156 254.085 293.955 250.51 322.815 244.756 228.769 284.868 245.575 224.861 224.014 220.7 213.318 221.932
threshold=2.1210798415898959 1.0379387904545492 5.4063485195021945 0.62518811857735113 13.009685050134136 3.31702886690239 1.539248993463662 -0.013875961303718041 0.014120101928710939 0.013824462890632107 -0.012519836425774143 -0.028533935546871444 0.029264450073242191 -0.019428253173824569 0.020389556884762076 0.0092639923095703142 -0.0090103149414026956 -0.0093688964843678928 0.0093612670898508572 0.018188476562507109 -0.016952514648444602 40.779714584350593 7.5000000000000009 18.500000000000004 4.5000000000000009 40.783990859985359 7.5000000000000009 40.76599311828614 18.500000000000004 4.5000000000000009
decision_type=2 2 2 2 2 2 2 2 2 2 2 2 2 2 2 2 2 2 2 2 2 2 2 2 2 2 2 2 2 2
left_child=1 3 5 -1 22 11 7 -3 9 10 -9 -2 21 -8 19 16 -5 -18 -19 20 -15 26 -4 24 -24 -7 -13 -12 29 -28
right_child=2 6 4 15 -6 25 13 8 -10 -11 27 12 -14 14 -16 -17 17 18 -20 -21 -22 -23 23 -25 -26 -27 28 -29 -30 -31
leaf_value=-0.017019621584561336 0.010074598104731687 0.0020065704164423412 0.0096090237328784918 -0.0036815399284116342 0.022945290945788469 0.0091992527106687962 0.0065225838535188001 -0.00080436304756274714 0.002068921328612458 0.00045016152174647689 -0.0077793928190430239 -0.0025958331698986417 0.010259396475439723 0.0035388803761711471 0.0069829255208199333 -0.0032674379025830081 -0.0044700666326068167 -0.014317370462505913 -0.0051577993344755092 0.00418888499965798 -0.0046386783723741066 -0.0040368073467745335 0.021088112100713412 0.01148113683411277 0.011665293546422704 0.0018394612513916225 0.0077093763340249869 -0.0135599277444722 0.00020640767002001433 0.00042582236301817082
leaf_weight=57192 12929 12232 21414 12199 27169 83660 11125 16657 12006 12639 59310 17373 11129 14491 8862 11201 9388 69717 10018 12931 72185 16524 25464 24302 9492 11848 36266 22883 28484 14697
leaf_count=57192 12929 12232 21414 12199 27169 83660 11125 16657 12006 12639 59310 17373 11129 14491 8862 11201 9388 69717 10018 12931 72185 16524 25464 24302 9492 11848 36266 22883 28484 14697
internal_value=1.31918e-11 -0.00699154 0.0087209 -0.0126488 0.0162823 0.00521987 -0.00323107 -0.00537854 -0.00611002 -0.00699079 -0.00794219 0.00308842 0.00236277 -0.000793921 -0.00154433 -0.0104273 -0.0112188 -0.0122505 -0.0131666 -0.002303 -0.00327151 0.00158742 0.0140383 0.0156389 0.0185294 0.00828625 0.00254729 -0.00938873 0.00367196 0.0056089
internal_weight=765787 425036 340751 169715 107841 232910 255321 135727 123495 111489 98850 137402 124473 119594 108469 112523 101322 89123 79735 99607 86676 113344 80672 59258 34956 95508 96820 82193 79447 50963
internal_count=765787 425036 340751 169715 107841 232910 255321 135727 123495 111489 98850 137402 124473 119594 108469 112523 101322 89123 79735 99607 86676 113344 80672 59258 34956 95508 96820 82193 79447 50963
is_linear=0
shrinkage=0.05


Tree=21
num_leaves=31
num_cat=0
split_feature=13 13 13 13 13 13 12 4 9 9 9 8 8 9 9 4 9 9 9 8 9 8 9 4 1 4 4 9 9 3
split_gain=16866.4 3943.25 2637.6 702.709 600.41 511.689 424.479 391.221 292.37 289.993 313.07 397.301 287.046 278.365 272.841 270.204 244.137 239.826 275.903 300.736 236.963 222.268 210.168 208.602 207.114 199.14 198.663 191.48 189.748 181.113
threshold=2.3884716401975288 1.0379387904545492 6.3794490818077367 1.5642881466087675 0.5816990631101614 3.8786966074978415 -0.10901260375975851 40.697099685668952 6.5000000000000009 6.5000000000000009 18.500000000000004 4.5000000000000009 5.5000000000000009 18.500000000000004 18.500000000000004 40.775075912475593 6.5000000000000009 7.5000000000000009 19.500000000000004 4.5000000000000009 19.500000000000004 4.5000000000000009 5.5000000000000009 40.745672225952156 -73.789989471435533 40.768503189086921 40.792886734008796 10.500000000000002 11.500000000000002 -73.973125457763658
decision_type=2 2 2 2 2 2 2 2 2 2 2 2 2 2 2 2 2 2 2 2 2 2 2 2 2 2 2 2 2 2
left_child=1 4 5 8 24 16 14 -8 -3 -5 11 -11 13 -10 22 17 -2 -6 19 23 21 -18 -4 -19 -1 -12 -7 -23 -13 -15
right_child=2 3 6 9 15 26 7 -9 12 10 25 28 -14 29 -16 -17 20 18 -20 -21 -22 27 -24 -25 -26 -27 -28 -29 -30 -31
leaf_value=-0.016384847185196682 -0.00079059255480495969 -0.011475208335927535 0.0092225425786685612 -0.0059991256104402861 -0.014772536815876154 0.010189816604817816 0.021513590866376352 0.012197082797846807 -0.0017322537867616242 0.0042867324702154739 -0.00087166795851143376 -0.009594265756278109 -0.010952732045583117 -0.0051294756057479358 0.014262872445436274 -0.015606700147613102 0.0084170771940006283 -0.0091540913186614597 -0.013345363576740802 -0.012551678973256758 0.0016598922419104323 -0.0068070130347327633 0.027737624648849046 -0.0024160657147838929 -0.046343611882125456 -0.0086242695218056841 0.0020231421040123178 0.0048203209802629042 -0.00017280318456824845 -0.013753379091237573
leaf_weight=47461 19433 15567 1705 18610 15913 75550 15029 45031 78338 67825 32985 7734 14039 25857 7240 19107 56780 17402 19412 16044 32118 4403 15166 33792 584 11061 8261 18082 17295 7963
leaf_count=47461 19433 15567 1705 18610 15913 75550 15029 45031 78338 67825 32985 7734 14039 25857 7240 19107 56780 17402 19412 16044 32118 4403 15166 33792 584 11061 8261 18082 17295 7963
internal_value=9.11881e-12 -0.00593557 0.00927665 -0.002464 -0.0120164 0.00633478 0.0167781 0.0145284 -0.0050101 -0.000142961 0.000653119 0.00229992 -0.0042126 -0.00336893 0.0223822 -0.0101476 0.00438066 -0.00913056 -0.00809443 -0.00657846 0.00528289 0.00675092 0.0258665 -0.00470647 -0.016749 -0.00281853 0.00938485 0.00254346 -0.00308405 -0.00715999
internal_weight=765787 466989 298798 297274 169715 214627 84171 60060 141764 155510 136900 92854 126197 112158 24111 121670 130816 102563 86650 67238 111383 79265 16871 51194 48045 44046 83811 22485 25029 33820
internal_count=765787 466989 298798 297274 169715 214627 84171 60060 141764 155510 136900 92854 126197 112158 24111 121670 130816 102563 86650 67238 111383 79265 16871 51194 48045 44046 83811 22485 25029 33820
is_linear=0
shrinkage=0.05


Tree=22
num_leaves=31
num_cat=0
split_feature=13 13 13 13 13 13 13 11 11 11 11 4 4 12 12 3 4 9 9 9 9 9 12 4 8 4 9 4 9 4
split_gain=15255.8 3378.49 2555.37 591.254 553.215 550.385 326.66 291.889 298.235 277.698 334.046 280.98 261.762 254.231 303.775 305.115 241.538 228.625 220.428 305.204 209.681 206.761 206.037 207.301 202.952 237.617 192.888 216.393 191.92 251.81
threshold=1.9546353656699209 5.1187936133610794 0.86174222330887396 10.437768666880677 3.2353221566347243 1.3378814881536176 0.42724702369992201 -0.027805328369137069 0.028533935546878556 -0.012336730957027696 0.012117385864254262 40.765710830688484 40.774736404418952 -0.02407836914060368 0.022224426269524148 -73.960796356201158 40.766912460327156 7.5000000000000009 6.5000000000000009 19.500000000000004 19.500000000000004 6.5000000000000009 -0.099994659423821006 40.697099685668952 4.5000000000000009 40.745370864868171 7.5000000000000009 40.748239517211921 8.5000000000000018 40.747938156127937
decision_type=2 2 2 2 2 2 2 2 2 2 2 2 2 2 2 2 2 2 2 2 2 2 2 2 2 2 2 2 2 2
left_child=2 4 6 22 7 9 -1 -2 13 -4 11 28 17 -9 15 -15 26 -7 -5 -20 24 -6 -3 -24 25 -19 -8 -28 -11 -30
right_child=1 3 5 18 21 12 16 8 -10 10 -12 -13 -14 14 -16 -17 -18 20 19 -21 -22 -23 23 -25 -26 -27 27 -29 29 -31
leaf_value=-0.018156216006450111 0.0092892969821093321 0.019582377379242573 0.0011524628416197031 0.011347534257605622 0.0019153560676575929 -0.0060733386494770487 -0.016000868774663331 0.0077843793492571815 0.009315397749670426 -0.011098142327989478 0.00072293980178054281 -0.012188488132641753 -0.006776883550778429 0.00030145405741901111 0.0056792433321262159 -0.0073347234513637316 -0.01571141813725636 -0.0016674543141154533 0.024641969789885476 0.01337986237372241 -0.0040033065759051255 0.0081965116382878133 0.017647623363672187 0.010010574204104075 -0.0030525279100072611 0.0053457000492560455 -0.012053201225094606 -0.0058493050934559868 -0.0085351882588128869 -0.0023296487062582079
leaf_weight=24279 13591 7943 10976 6583 15793 18895 11396 12448 11633 17900 12186 29463 23941 86471 21559 15413 26354 18554 21297 8384 25135 76884 10365 62258 19619 34603 27372 28892 30946 34654
leaf_count=24279 13591 7943 10976 6583 15793 18895 11396 12448 11633 17900 12186 29463 23941 86471 21559 15413 26354 18554 21297 8384 25135 76884 10365 62258 19619 34603 27372 28892 30946 34654
internal_value=8.5232e-12 0.00728715 -0.00683456 0.0143232 0.00404821 -0.00420642 -0.0129859 0.00227771 0.00163175 -0.00647323 -0.00714203 -0.00799047 -0.00201406 0.000973984 0.000287224 -0.000853746 -0.0116506 -0.00103785 0.0196249 0.0214608 -6.60942e-05 0.00712615 0.0119368 0.0111006 0.00129372 0.00289782 -0.0100689 -0.00886745 -0.0065092 -0.00525704
internal_weight=765787 370622 395165 116830 253792 276872 118293 161115 147524 136125 125149 112963 140747 135891 123443 101884 94014 116806 36264 29681 97911 92677 80566 72623 72776 53157 67660 56264 83500 65600
internal_count=765787 370622 395165 116830 253792 276872 118293 161115 147524 136125 125149 112963 140747 135891 123443 101884 94014 116806 36264 29681 97911 92677 80566 72623 72776 53157 67660 56264 83500 65600
is_linear=0
shrinkage=0.05


Tree=23
num_leaves=31
num_cat=0
split_feature=13 13 13 13 13 3 9 8 9 4 2 13 11 11 12 12 3 4 13 13 9 9 8 8 11 11 4 9 9 9
split_gain=13803.1 3564.98 1881.87 671.229 467.819 439.289 356.71 344.949 333.851 346.642 296.237 264.072 259.64 275.286 264.63 324.505 252.645 246.963 241.994 458.907 240.332 285.514 265.415 237.589 236.078 222.761 265.428 198.956 242.016 198.936
threshold=1.7624928115217779 4.5191717879960693 0.81917566295910171 10.437768666880677 2.7225466571860579 -73.967823028564453 7.5000000000000009 5.5000000000000009 18.500000000000004 40.745672225952156 40.774938583374031 0.32392757071338396 -0.023542404174808237 0.024078369140628556 -0.021156311035149141 0.020503997802741484 -73.960796356201158 40.769170761108406 1.0000000180025095e-35 0.057721837256050228 7.5000000000000009 18.500000000000004 4.5000000000000009 4.5000000000000009 -0.03942871093749644 0.039178848266601569 40.775827407836921 17.500000000000004 6.5000000000000009 6.5000000000000009
decision_type=2 2 2 2 2 2 2 2 2 2 2 2 2 2 2 2 2 2 2 2 2 2 2 2 2 2 2 2 2 2
left_child=2 4 11 20 12 6 -4 8 9 -8 -11 18 -2 14 -14 16 -16 -13 -1 -20 -3 22 -22 27 -6 26 -26 28 -7 -5
right_child=1 3 5 29 24 23 7 -9 -10 10 -12 17 13 -15 15 -17 -18 -19 19 -21 21 -23 -24 -25 25 -27 -28 -29 -30 -31
leaf_value=-0.0064744655731596851 0.0074523763765742268 0.0065926562339852354 -0.0087541335138872304 0.010780157592240184 0.013461351819750878 -0.01855261656829495 -0.0043115128450493898 -0.009146933074014851 -0.0054427594176194808 0.0032019641419858448 -0.0064632481376821899 -0.010228190230475281 0.0062655076016157902 0.0073449484643998341 -0.0012177468449048191 0.004959162259116974 -0.0085870673721861763 -0.016190973850631694 -0.038299485458702112 -0.016209813212521677 0.017168791737880891 0.0084768617651265719 0.0086309192951472234 -0.014921799466397261 0.0052679859215647882 0.012827398689562378 -0.0012849441606703821 -0.01243051246189612 -0.0029848578914329297 0.020387721275026461
leaf_weight=3117 14562 26179 30382 6583 8220 2789 36257 19365 48879 54862 9267 67815 13712 13043 79210 18457 13632 23342 3208 8803 31739 31116 12763 12616 83898 7796 18942 11748 23804 29681
leaf_count=3117 14562 26179 30382 6583 8220 2789 36257 19365 48879 54862 9267 67815 13712 13043 79210 18457 13632 23342 3208 8803 31739 31116 12763 12616 83898 7796 18942 11748 23804 29681
internal_value=4.58684e-12 0.00626094 -0.00719729 0.0128025 0.00293414 -0.00482767 -0.00376704 -0.00286852 -0.00205398 -0.000403954 0.00180529 -0.0127703 0.00110243 0.000432638 -0.000288556 -0.00109601 -0.00229978 -0.011755 -0.0188882 -0.0221097 0.0107217 0.0121511 0.0147202 -0.00896995 0.00528613 0.00467873 0.00406101 -0.00701151 -0.00461756 0.0186437
internal_weight=765787 409533 356254 138061 271472 249969 199012 168630 149265 100386 64129 106285 152616 138054 125011 111299 92842 91157 15128 12011 101797 75618 44502 50957 118856 110636 102840 38341 26593 36264
internal_count=765787 409533 356254 138061 271472 249969 199012 168630 149265 100386 64129 106285 152616 138054 125011 111299 92842 91157 15128 12011 101797 75618 44502 50957 118856 110636 102840 38341 26593 36264
is_linear=0
shrinkage=0.05


Tree=24
num_leaves=31
num_cat=0
split_feature=13 13 13 13 4 4 9 9 9 4 8 8 8 12 11 2 9 12 12 2 9 9 11 11 8 4 13 4 12 1
split_gain=12457.3 3218.66 1703.07 664.485 409.916 406.228 372.97 335.943 344.882 365.988 367.22 332.793 290.103 275.647 416.532 292.027 274.134 267.137 294.897 289.679 229.407 340.592 224.825 242.916 218.822 210.02 194.541 186.687 184.299 181.018
threshold=1.7624928115217779 4.3080521914627807 0.84078840567576496 8.7297030672011058 40.769872665405281 40.768796920776374 7.5000000000000009 8.5000000000000018 18.500000000000004 40.745672225952156 4.5000000000000009 5.5000000000000009 1.0000000180025095e-35 0.0042800903320383563 0.0055007934570348036 40.775701522827156 6.5000000000000009 0.009742736816427568 0.024765014648444609 40.766580581665046 6.5000000000000009 18.500000000000004 -0.0072631835937464464 0.0073509216308629286 4.5000000000000009 40.792886734008796 2.9568604166357559 40.775827407836921 -0.00390243530274148 -73.94768905639647
decision_type=2 2 2 2 2 2 2 2 2 2 2 2 2 2 2 2 2 2 2 2 2 2 2 2 2 2 2 2 2 2
left_child=2 4 16 25 6 7 -2 -4 9 28 -11 12 -8 15 -15 -7 -1 19 -19 -6 -5 24 -18 27 -22 -3 -14 29 -9 -24
right_child=1 3 5 20 17 13 11 8 -10 10 -12 -13 26 14 -16 -17 22 18 -20 -21 21 -23 23 -25 -26 -27 -28 -29 -30 -31
leaf_value=-0.018590856148322094 -0.00066579228071189591 0.010314015800366869 -0.0074421677122950853 0.0095979310331662186 0.0096932807558481257 0.00081472131671113184 0.00016377910760313839 -0.0083932239852595129 -0.0055931793848369863 0.0041928866422474851 -0.0048909062492775461 -0.0012161092266479781 0.0052622195882551133 -0.0024339744785206951 -0.01619203913824489 -0.0094075790937298998 -0.0033909301082437901 -0.0058634105153658172 0.0035725664248988428 -0.0011978573617371863 0.02400162026030532 0.01177288725068526 -0.011006663027576092 -0.0037554578054954007 0.013845139876385094 0.0033366066354549185 0.0096001242323555114 -0.017783535306355142 -0.0013608545489148904 -0.025242187103449706
leaf_weight=13590 38003 83200 40433 9840 10392 12520 20097 16295 51943 44328 14854 19778 80129 7898 18130 15808 8804 29780 11469 14801 20218 14094 64671 8568 7189 12391 38152 14344 21755 2313
leaf_count=13590 38003 83200 40433 9840 10392 12520 20097 16295 51943 44328 14854 19778 80129 7898 18130 15808 8804 29780 11469 14801 20218 14094 64671 8568 7189 12391 38152 14344 21755 2313
internal_value=6.34726e-12 0.0059479 -0.00683743 0.0118738 0.00263221 -0.00449204 0.00378192 -0.00339962 -0.00230392 -0.000546736 0.00191296 0.00485065 0.00571776 -0.00830267 -0.0120173 -0.00488967 -0.0119331 -0.000762101 -0.0032398 0.00329469 0.0164619 0.0180893 -0.0110164 -0.0117632 0.0213375 0.00940957 0.00666143 -0.0126068 -0.00437248 -0.0114982
internal_weight=765787 409533 356254 146932 262601 243964 196159 189608 149175 97232 59182 158156 138378 54356 26028 28328 112290 66442 41249 25193 51341 41501 98700 89896 27407 95591 118281 81328 38050 66984
internal_count=765787 409533 356254 146932 262601 243964 196159 189608 149175 97232 59182 158156 138378 54356 26028 28328 112290 66442 41249 25193 51341 41501 98700 89896 27407 95591 118281 81328 38050 66984
is_linear=0
shrinkage=0.05


Tree=25
num_leaves=31
num_cat=0
split_feature=13 13 13 13 11 11 11 12 12 13 3 9 9 8 9 11 11 12 12 9 8 3 9 9 8 13 9 12 4 2
split_gain=11262.1 2545.42 1964 559.141 431.526 372.45 375.669 417.138 535.951 320.733 317.444 296.817 377.888 388.704 251.001 248.982 290.704 253.002 300.772 197.563 184.587 183.629 180.025 237.577 193.881 176.928 165.991 164.628 162.947 185.399
threshold=2.270128695322994 1.1744680676128858 6.3794490818077367 0.67948354540274969 -0.03571319580077769 -0.019027709960930391 0.019975662231448869 0.01654815673830257 -0.015945434570305391 19.533702295112061 -73.967075347900376 6.5000000000000009 18.500000000000004 4.5000000000000009 10.500000000000002 -0.010251998901374291 0.010517120361331679 -0.0097694396972656233 0.0093612670898508572 7.5000000000000009 5.5000000000000009 -73.950405120849581 6.5000000000000009 18.500000000000004 4.5000000000000009 3.5758546394343758 18.500000000000004 -0.018043518066413352 40.745672225952156 40.780008316040046
decision_type=2 2 2 2 2 2 2 2 2 2 2 2 2 2 2 2 2 2 2 2 2 2 2 2 2 2 2 2 2 2
left_child=1 3 4 21 27 -3 7 8 -7 22 19 -6 13 25 -15 -5 17 -17 -19 -10 26 -1 -4 24 -24 -13 28 -2 -21 -30
right_child=2 5 9 15 11 6 -8 -9 10 -11 -12 12 -14 14 -16 16 -18 18 -20 20 -22 -23 23 -25 -26 -27 -28 -29 29 -31
leaf_value=-0.012068249852033187 0.0064843618310394414 0.0053770011684320558 0.007613262538335927 -0.00067688033603219603 -0.0003972410831483645 0.0029210048156906852 0.0056671098640150887 0.0031651667972673551 -0.0082748168142125905 0.020390527115264449 -0.0091629680209406993 0.0069044374214106002 0.0017260100648467552 -0.0067813214053716216 0.0042746210214785396 -0.002600274529347768 -0.00058608989643446402 -0.010906084307782836 -0.0036747109949056434 -0.0038487215305527626 -0.0084451377652020859 -0.022027599964408472 0.018528150809617984 0.0094290328158838053 0.0097632168419279006 0.012110256377527851 -0.0049283962821289485 0.013497978613105392 0.0026927524760215499 -0.0086289576314516146
leaf_weight=64676 16218 17824 15658 12895 32558 27298 14427 26641 18607 15016 31436 49967 61862 6551 23727 14604 12060 82510 17414 22027 12247 4985 24852 20189 8456 24239 30409 17283 35120 4031
leaf_count=64676 16218 17824 15658 12895 32558 27298 14427 26641 18607 15016 31436 49967 61862 6551 23727 14604 12060 82510 17414 22027 12247 4985 24852 20189 8456 24239 30409 17283 35120 4031
internal_value=1.69787e-11 -0.00509026 0.00722291 -0.0091227 0.00485284 -0.00157723 -0.00213497 -0.0026766 -0.00353561 0.0137669 -0.00468102 0.00396862 0.00482313 0.00665685 0.00188254 -0.00729568 -0.00796991 -0.00874744 -0.00964586 -0.00353031 -0.00268009 -0.0127809 0.0123287 0.0137088 0.016303 0.00860489 -0.00190919 0.0101027 -0.000408474 0.00152707
internal_weight=765787 449211 316576 209144 232405 240067 222243 207816 181175 84171 153877 198904 166346 104484 30278 139483 126588 114528 99924 122441 103834 69661 69155 53497 33308 74206 91587 33501 61178 39151
internal_count=765787 449211 316576 209144 232405 240067 222243 207816 181175 84171 153877 198904 166346 104484 30278 139483 126588 114528 99924 122441 103834 69661 69155 53497 33308 74206 91587 33501 61178 39151
is_linear=0
shrinkage=0.05


Tree=26
num_leaves=31
num_cat=0
split_feature=13 13 13 13 9 9 8 11 9 9 9 8 9 9 9 8 12 4 11 11 12 12 3 9 9 4 4 9 12 4
split_gain=10186.3 2589.85 1549.92 504.978 377.096 417.371 469.624 367.654 304.884 258.319 309.624 336.11 258.232 351.495 264.165 247.702 245.322 235.09 232.115 263.314 232.041 278.372 228.109 223.161 207.667 181.816 218.387 172.844 163.144 156.323
threshold=2.4522555882142734 1.1744680676128858 6.9197676497171967 0.65233583198968226 6.5000000000000009 19.500000000000004 4.5000000000000009 -0.03942871093749644 11.500000000000002 6.5000000000000009 18.500000000000004 4.5000000000000009 6.5000000000000009 18.500000000000004 13.500000000000002 1.0000000180025095e-35 -0.085311889648444592 40.764974594116218 -0.010932922363277696 0.010082244873050429 -0.0091629028320383537 0.0093612670898508572 -73.97741317749022 10.500000000000002 3.5000000000000004 40.744760513305671 40.766912460327156 6.5000000000000009 -0.018436431884772727 40.776216506958015
decision_type=2 2 2 2 2 2 2 2 2 2 2 2 2 2 2 2 2 2 2 2 2 2 2 2 2 2 2 2 2 2
left_child=1 3 7 27 24 6 15 28 -8 -9 11 -11 -4 14 16 -6 -14 -7 -5 20 -20 29 -10 -13 -3 -17 -27 -1 -2 -22
right_child=2 4 12 18 5 17 8 9 22 10 -12 23 13 -15 -16 25 -18 -19 19 -21 21 -23 -24 -25 -26 26 -28 -29 -30 -31
leaf_value=-0.019184152544936956 0.0066794427868448625 -0.0036988657543573253 0.0078146126956944416 0.00033938488678013031 -0.0023855390501489994 -0.0023681660546448317 -0.010152733828813459 0.00032016158896414407 0.0019814019120485108 0.0089148686474690205 0.0023923535775930288 -0.006038570421310438 0.02022130010187919 0.0098096380017636108 0.022136262674401906 -0.00021407963392431484 0.009116942499670936 -0.0096900111656412578 -0.0030598415781671108 -0.0011470228071305117 -0.0095015215661745436 -0.0034863597791381668 -0.0065483753252787921 0.004764555979184279 -0.012559170981623952 0.0065935513342124516 0.0012361122315827106 -0.01138959459452173 0.014254121949983392 -0.015408423941729119
leaf_weight=8165 14038 21700 15558 9912 24478 41609 13081 31960 21290 67721 58445 6123 8734 20878 18697 28806 11553 14885 17778 14216 73205 17477 12405 21800 9512 47027 31942 55167 14401 13224
leaf_count=8165 14038 21700 15558 9912 24478 41609 13081 31960 21290 67721 58445 6123 8734 20878 18697 28806 11553 14885 17778 14216 73205 17477 12405 21800 9512 47027 31942 55167 14401 13224
internal_value=5.15029e-12 -0.00450097 0.00738827 -0.00866656 -0.00123478 -0.000550394 0.000631978 0.00522039 -0.00367403 0.00441104 0.00525955 0.00701159 0.0135535 0.0150451 0.0178489 0.00215495 0.0138976 -0.00429732 -0.00704737 -0.00758613 -0.00833839 -0.00924154 -0.00115888 0.00239563 -0.00639908 0.00318619 0.00442653 -0.0123945 0.0105151 -0.0104053
internal_weight=765787 475879 289908 209144 266735 235523 179029 214488 46776 186049 154089 95644 75420 59862 38984 132253 20287 56494 145812 135900 121684 103906 33695 27923 31212 107775 78969 63332 28439 86429
internal_count=765787 475879 289908 209144 266735 235523 179029 214488 46776 186049 154089 95644 75420 59862 38984 132253 20287 56494 145812 135900 121684 103906 33695 27923 31212 107775 78969 63332 28439 86429
is_linear=0
shrinkage=0.05


Tree=27
num_leaves=31
num_cat=0
split_feature=13 13 13 13 11 11 12 12 4 9 1 8 12 12 8 11 4 11 11 8 9 9 9 8 9 9 3 9 2 8
split_gain=9250.7 2466.4 1204.25 576.438 386.901 437.168 425.883 514.373 328.556 282.811 272.51 264.101 264.092 254.344 250.607 244.943 216.951 214.332 234.548 212.102 181.244 180.995 188.386 242.53 177.843 182.793 177.816 170.714 163.924 163.056
threshold=1.7490507398313169 3.9353641646204021 0.79756292024121123 10.437768666880677 0.015567779541019179 -0.014696121215820311 0.012870788574225857 -0.011299133300774143 40.769872665405281 7.5000000000000009 -73.972049713134751 5.5000000000000009 0.0088119506836008572 0.024765014648444609 1.0000000180025095e-35 -0.0090103149414026956 40.792886734008796 -0.006881713867176841 0.0067996978759765634 4.5000000000000009 18.500000000000004 7.5000000000000009 18.500000000000004 4.5000000000000009 8.5000000000000018 19.500000000000004 -73.958835601806626 6.5000000000000009 40.752729415893562 4.5000000000000009
decision_type=2 2 2 2 2 2 2 2 2 2 2 2 2 2 2 2 2 2 2 2 2 2 2 2 2 2 2 2 2 2
left_child=2 8 17 16 5 -4 7 -7 9 -2 24 14 15 -14 -11 -10 21 -1 26 20 27 -3 23 -23 -9 29 -19 -12 -18 -26
right_child=1 3 4 -5 -6 6 -8 10 12 11 19 -13 13 -15 -16 -17 28 18 -20 -21 -22 22 -24 -25 25 -27 -28 -29 -30 -31
leaf_value=-0.0033291821371972171 -0.001017712869503214 0.005452337618978665 0.0030559846457772744 0.015389990025081632 0.003909657426816246 -0.00060560327572351707 0.00066028100440027309 -0.009913790458422108 -0.0064432096195648466 -0.00057592393307268422 -0.02046640523304382 -0.001624302531020588 -0.0059913658410786705 0.0035927614573170643 0.0056380110193803012 0.0056744912253798878 0.009733227899823978 -0.011144289840561575 -0.0039816666232662216 -0.017102061680724319 -0.01596238911898408 0.014260585552912578 0.0072646794143326936 0.0066966327689637886 -0.0022217866701671977 -0.0087697674414029553 -0.01740744686964028 -0.0055717615280954464 -0.00063847191121718617 -0.0077066049752872803
leaf_weight=9257 35578 26648 17387 36264 14225 35983 27378 22976 5388 18980 2095 18647 29659 9030 111806 18452 5832 67597 9736 9824 6817 36647 33671 14909 50446 23892 13615 23535 10986 18527
leaf_count=9257 35578 26648 17387 36264 14225 35983 27378 22976 5388 18980 2095 18647 29659 9030 111806 18452 5832 67597 9736 9824 6817 36647 33671 14909 50446 23892 13615 23535 10986 18527
internal_value=-1.35135e-12 0.00508579 -0.00593811 0.00982197 -0.00410126 -0.00457834 -0.00517768 -0.00600115 0.00192967 0.00298866 -0.00722906 0.00394253 -0.00120369 -0.00375443 0.00473623 0.00293581 0.00825298 -0.0105774 -0.0113151 -0.0106653 -0.0087165 0.00904894 0.0101735 0.0120732 -0.00597515 -0.00500068 -0.0121943 -0.00678925 0.00295814 -0.00369508
internal_weight=765787 412497 353290 164957 253085 238860 221473 194095 247540 185011 158112 149433 62529 38689 130786 23840 128693 100205 90948 42271 32447 111875 85227 51556 115841 92865 81212 25630 16818 68973
internal_count=765787 412497 353290 164957 253085 238860 221473 194095 247540 185011 158112 149433 62529 38689 130786 23840 128693 100205 90948 42271 32447 111875 85227 51556 115841 92865 81212 25630 16818 68973
is_linear=0
shrinkage=0.05


Tree=28
num_leaves=31
num_cat=0
split_feature=13 13 13 13 11 11 12 12 4 13 11 9 9 8 11 11 12 12 9 9 8 9 4 4 12 11 12 8 11 9
split_gain=8379.73 1999.98 1336.85 419.454 326.574 333.453 371.309 468.022 298.109 286.951 275.161 226.535 278.561 242.492 217.524 250.914 220.644 275.849 210.303 189.459 198.889 189.449 180.318 171.046 170.406 204.605 168.068 163.665 156.782 147.904
threshold=2.3884716401975288 1.1744680676128858 5.9686751851789914 0.62518811857735113 -0.02025985717774503 0.020797729492191056 0.017845153808600859 -0.016605377197258516 40.775075912475593 19.533702295112061 -0.03942871093749644 6.5000000000000009 19.500000000000004 4.5000000000000009 -0.010049819946289061 0.0098724365234410544 -0.0089683532714843733 0.0086212158203196072 11.500000000000002 7.5000000000000009 5.5000000000000009 15.500000000000002 40.693925857543952 40.675266265869148 0.0057601928710724346 0.0075416564941370732 -0.099994659423821006 1.0000000180025095e-35 0.0069808959960901982 18.500000000000004
decision_type=2 2 2 2 2 2 2 2 2 2 2 2 2 2 2 2 2 2 2 2 2 2 2 2 2 2 2 2 2 2
left_child=1 3 10 23 -3 6 7 -6 19 22 -2 -12 13 27 -5 16 -16 -18 -15 -9 21 -21 -4 -1 25 -10 29 -13 -26 -24
right_child=2 4 9 14 5 -7 -8 8 24 -11 11 12 -14 18 15 -17 17 -19 -20 20 -22 -23 26 -25 28 -27 -28 -29 -30 -31
leaf_value=-0.032688355663785709 0.0095722604914113101 0.0054718907020862651 0.015458206647632162 -0.00048177096536579004 0.0031790579063813241 0.0054748514855880092 0.0037105526370634205 -0.00708255966537051 -0.011501166338161985 0.017840605755954832 -0.00031607035309982949 0.0025447951177323559 0.0011840742602935422 -0.0045220031553161099 -0.0028344481723694449 -0.0010319780325715722 -0.010031011151822852 -0.0036891590016510235 0.0046611330233015964 0.00081070209839201692 -0.0077178450767778047 -0.0033900029717039665 0.017188150762603476 -0.011114462042264619 -0.0012241891459253505 0.0014431928593542493 0.007813108135122206 0.008451814561215484 -0.013735370831299118 0.0058414899512011639
leaf_weight=934 22009 16948 13891 13902 27469 15139 23842 22797 5222 15016 30026 14455 46174 8657 18924 15419 82029 21678 22280 51335 14016 56251 10165 56258 3029 7349 50005 62117 14448 4003
leaf_count=934 22009 16948 13891 13902 27469 15139 23842 22797 5222 15016 30026 14455 46174 8657 18924 15419 82029 21678 22280 51335 14016 56251 10165 56258 3029 7349 50005 62117 14448 4003
internal_value=5.29909e-12 -0.00418376 0.00653876 -0.00781693 -0.0012368 -0.00170879 -0.00219051 -0.0028873 -0.00384253 0.0115107 0.00428912 0.00365618 0.00443226 0.00582732 -0.00644319 -0.00704352 -0.00779939 -0.00870537 0.00209145 -0.00289966 -0.00211548 -0.00138562 0.0102932 -0.0114668 -0.00837359 -0.0039339 0.00917513 0.00733671 -0.011567 0.0139823
internal_weight=765787 466989 298798 209144 257845 240897 225758 201916 174447 93080 205718 183709 153683 107509 151952 138050 122631 103707 30937 144399 121602 107586 78064 57192 30048 12571 64173 76572 17477 14168
internal_count=765787 466989 298798 209144 257845 240897 225758 201916 174447 93080 205718 183709 153683 107509 151952 138050 122631 103707 30937 144399 121602 107586 78064 57192 30048 12571 64173 76572 17477 14168
is_linear=0
shrinkage=0.05


Tree=29
num_leaves=31
num_cat=0
split_feature=13 13 13 13 9 9 8 9 11 4 4 9 9 9 9 4 8 3 8 9 9 8 12 11 4 4 12 4 13 9
split_gain=7574.21 1903.24 1130.08 396.789 305.65 363.203 391.883 276.083 273.113 251.036 229.789 332.277 229.005 220.524 299.383 215.919 207.997 207.077 204.998 202.942 283.26 260.864 200.285 291.448 196.265 190.055 179.265 176.269 157.582 155.138
threshold=2.4741319009628362 1.1947629601671048 6.9197676497171967 0.5508613692347879 6.5000000000000009 19.500000000000004 4.5000000000000009 10.500000000000002 -0.04080200195312144 40.765710830688484 40.747938156127937 6.5000000000000009 19.500000000000004 6.5000000000000009 19.500000000000004 40.745370864868171 4.5000000000000009 -73.97741317749022 4.5000000000000009 7.5000000000000009 18.500000000000004 4.5000000000000009 0.0033111572265696059 0.0034790039062464477 40.764974594116218 40.750230789184577 -0.0064392089843821046 40.766912460327156 17.513042636142586 11.500000000000002
decision_type=2 2 2 2 2 2 2 2 2 2 2 2 2 2 2 2 2 2 2 2 2 2 2 2 2 2 2 2 2 2
left_child=1 3 8 -1 25 6 15 -8 -2 10 -5 -12 16 -4 18 26 -13 -9 28 -10 21 -21 -11 -24 -7 -3 -6 -17 -15 -23
right_child=2 4 13 9 5 24 7 17 19 22 11 12 -14 14 -16 27 -18 -19 -20 20 -22 29 23 -25 -26 -27 -28 -29 -30 -31
leaf_value=-0.011692262630692781 0.0093713228683359791 -0.0020640069128429069 0.0063753966609784943 -0.0072939100489599999 -0.0051123435514435177 -0.0021147241859325698 -0.011149585604743344 0.0015153596426567496 0.00068866831152186671 -0.0067275733334076051 -0.013486549879375816 0.0014965534198022959 -0.0083258042680753857 0.0152185288778902 0.0075241919089749712 0.0051843826827929138 -0.0066655379036788479 -0.0061827158757370255 0.0094176418615217715 0.0083341240278661834 0.0020352726028606224 -0.0035378042633990234 -0.0052179849525998715 -0.018069386687152602 -0.0088213892844267294 -0.0099283032720871543 0.0019953302506216671 0.00079591519833380165 0.023186504139971989 0.0048402674293927285
leaf_weight=42118 25793 16745 15558 61364 15990 41216 8878 23534 39268 28554 6771 36521 10817 23079 17359 55796 9927 13893 10937 61112 58370 7757 6969 12022 14835 14195 19926 38789 8487 19207
leaf_count=42118 25793 16745 15558 61364 15990 41216 8878 23534 39268 28554 6771 36521 10817 23079 17359 55796 9927 13893 10937 61112 58370 7757 6969 12022 14835 14195 19926 38789 8487 19207
internal_value=1.28145e-12 -0.00384916 0.00642397 -0.00734028 -0.00100299 -0.000382607 0.000729235 -0.00322255 0.00455018 -0.00628042 -0.00510745 -0.00301222 -0.00177374 0.0116788 0.0130571 0.00213143 -0.000247872 -0.00134219 0.0153169 0.00388059 0.00473648 0.00652663 -0.00937414 -0.0133534 -0.00388978 -0.00567208 -0.00116905 0.00338469 0.0173608 0.00243006
internal_weight=765787 478860 286927 215063 263797 232857 176806 46305 211507 172945 125400 64036 57265 75420 59862 130501 46448 37427 42503 185714 146446 88076 47545 18991 56051 30940 35916 94585 31566 26964
internal_count=765787 478860 286927 215063 263797 232857 176806 46305 211507 172945 125400 64036 57265 75420 59862 130501 46448 37427 42503 185714 146446 88076 47545 18991 56051 30940 35916 94585 31566 26964
is_linear=0
shrinkage=0.05


Tree=30
num_leaves=31
num_cat=0
split_feature=13 13 13 12 11 11 12 12 4 4 9 12 2 11 4 9 9 4 8 12 9 8 9 8 9 1 9 9 9 8
